~o
<STREAMINFO> 1 39
<VECSIZE> 39<NULLD><USER>
~h "Six"
<BEGINHMM>
<NUMSTATES> 18
<STATE> 2
<NUMMIXES> 6
<MIXTURE> 1 5.065746e-002
<MEAN> 39
 -2.055970e+000 -1.189110e+001 4.122135e+000 -3.493392e+000 6.363845e+000 2.515583e+000 6.909448e+000 3.325247e+000 3.485067e+000 5.451107e+000 1.199550e+000 -1.106164e-001 2.625160e+000 -3.409941e-001 -1.752109e+000 2.096819e-001 -2.102732e-001 1.498156e+000 1.331616e+000 1.923314e+000 1.457851e+000 2.177857e+000 1.686226e+000 9.897252e-001 7.308909e-001 1.415392e+000 -6.888424e-002 4.309405e-001 -3.263147e-001 1.492886e-001 -2.131403e-001 -2.135984e-002 -3.151067e-001 3.410483e-002 -1.071925e-001 1.781415e-004 4.958982e-002 2.396224e-001 2.186118e-001
<VARIANCE> 39
 6.792432e+000 1.128350e+001 3.440302e+001 1.668307e+001 1.545470e+001 2.174503e+001 2.660121e+001 1.734417e+001 3.312285e+001 2.547818e+001 2.148177e+001 2.105298e+001 4.177224e+001 4.755846e-001 2.564261e+000 2.438500e+000 3.559059e+000 3.538179e+000 1.455989e+000 2.265736e+000 1.626096e+000 2.799834e+000 1.928948e+000 2.010963e+000 1.721941e+000 2.339410e+000 1.623312e-001 1.429219e-001 2.268786e-001 4.384486e-001 4.662915e-001 3.310969e-001 5.744324e-001 4.150665e-001 7.922792e-001 4.207464e-001 5.298289e-001 3.805754e-001 8.639212e-001
<GCONST> 1.077666e+002
<MIXTURE> 2 2.211194e-001
<MEAN> 39
 -8.743066e-001 -1.389033e+001 1.704450e-001 -6.767295e+000 5.627945e+000 1.715118e+000 6.428937e+000 3.720557e+000 4.340998e+000 7.005735e+000 3.438389e+000 4.969451e-001 4.656979e+000 2.857595e-001 2.436232e-001 -2.316601e-001 -1.484404e-001 -9.580919e-001 -1.136338e-001 -1.529011e-001 1.193912e-001 -1.035701e-001 3.799767e-001 3.250935e-001 -2.968725e-001 2.435194e-001 2.271537e-001 7.381954e-001 4.474088e-001 5.577794e-001 -2.535820e-001 -2.329358e-001 -3.755398e-001 -3.212270e-001 -5.854403e-001 -5.366597e-001 -2.957456e-001 -5.686795e-001 -3.006398e-001
<VARIANCE> 39
 1.156586e+001 1.349035e+001 1.738337e+001 1.421743e+001 2.299417e+001 2.529813e+001 2.047905e+001 2.709977e+001 3.411832e+001 3.594116e+001 3.101843e+001 3.158002e+001 2.737093e+001 2.637935e-001 6.839126e-001 7.385687e-001 1.316867e+000 1.571624e+000 1.688089e+000 1.519188e+000 2.108135e+000 2.743597e+000 2.867791e+000 3.218260e+000 3.343622e+000 3.072535e+000 4.917403e-002 2.968673e-001 1.697283e-001 2.398864e-001 3.658389e-001 3.216321e-001 3.192444e-001 3.791905e-001 5.745831e-001 6.086616e-001 5.957571e-001 6.895261e-001 7.142845e-001
<GCONST> 1.042348e+002
<MIXTURE> 3 2.069078e-001
<MEAN> 39
 7.311571e-002 -1.287967e+001 3.149457e+000 -4.961992e+000 6.652287e+000 1.052656e+000 3.037881e+000 7.443335e-001 5.461568e-001 1.790896e+000 3.281097e-001 -2.014391e+000 3.055169e+000 2.445704e-001 -2.234844e-002 -4.456718e-002 1.536794e-001 4.853327e-001 5.286767e-001 5.013008e-001 9.551057e-002 -2.847895e-001 1.624295e-002 2.948461e-001 1.476862e-001 2.265386e-001 1.899389e-003 2.617388e-001 -1.285940e-001 1.153432e-001 -2.478081e-001 1.202141e-001 1.915852e-001 1.426981e-001 2.471250e-001 3.644743e-001 2.878475e-001 1.415417e-001 9.145663e-002
<VARIANCE> 39
 1.177404e+001 1.367326e+001 2.586293e+001 1.725535e+001 1.837557e+001 2.667385e+001 2.564771e+001 3.260737e+001 2.993886e+001 2.223686e+001 3.460750e+001 2.247071e+001 1.928360e+001 2.805810e-001 4.008681e-001 9.126126e-001 1.246449e+000 1.343538e+000 1.818460e+000 1.533772e+000 2.725282e+000 2.827779e+000 2.469063e+000 3.065013e+000 2.274422e+000 2.099634e+000 4.461758e-002 1.194328e-001 1.958010e-001 1.715299e-001 2.869770e-001 3.563934e-001 4.067031e-001 5.755932e-001 6.463740e-001 4.982123e-001 7.270483e-001 4.742239e-001 3.715649e-001
<GCONST> 1.012456e+002
<MIXTURE> 4 1.755665e-001
<MEAN> 39
 -1.053484e+000 -1.346595e+001 -4.951563e-001 -6.538819e+000 4.223819e+000 -6.328145e-001 5.006327e+000 1.041091e+000 3.213552e+000 6.284860e+000 3.126066e+000 3.882853e-001 2.888401e+000 5.082332e-001 -1.760981e-001 -2.217423e-001 -3.756878e-001 -6.611676e-001 -7.315029e-001 -8.258369e-001 -3.077920e-001 -6.030495e-001 -7.682175e-001 -7.249166e-001 -9.557778e-001 -2.688329e-001 -3.488664e-003 4.569935e-001 4.023522e-001 4.616280e-001 9.164460e-002 2.688957e-001 9.349270e-002 4.729004e-003 -3.193405e-001 -2.589893e-001 -2.625213e-001 -3.669363e-001 1.059465e-001
<VARIANCE> 39
 8.178202e+000 1.029816e+001 1.207535e+001 1.905365e+001 1.853100e+001 1.673050e+001 1.577675e+001 1.806461e+001 1.786020e+001 1.786432e+001 1.941640e+001 2.974137e+001 1.799448e+001 3.427348e-001 7.226344e-001 1.134149e+000 1.176051e+000 1.556583e+000 1.395247e+000 2.209371e+000 1.997846e+000 2.799805e+000 2.933442e+000 2.677150e+000 2.408024e+000 1.585515e+000 8.728544e-002 1.792912e-001 1.844677e-001 3.319189e-001 2.935418e-001 3.018679e-001 3.591557e-001 3.071342e-001 3.755879e-001 4.243329e-001 4.536265e-001 5.200811e-001 3.996611e-001
<GCONST> 9.775895e+001
<MIXTURE> 5 2.663907e-001
<MEAN> 39
 -1.404090e+000 -1.313916e+001 6.397303e-001 -3.827929e+000 5.773988e+000 2.975814e+000 5.999305e+000 1.067515e+000 2.252271e+000 6.060126e+000 1.676073e+000 4.375607e-001 5.145090e+000 9.846869e-002 -1.034021e-001 -2.277902e-001 -2.185514e-001 -1.219383e-001 -1.674543e-001 -4.244599e-001 -1.907313e-001 -2.896394e-001 -1.509084e-001 1.126064e-001 6.522413e-002 -5.161087e-002 4.441036e-002 1.524888e-001 9.358645e-002 6.468190e-002 -1.409008e-001 -5.935555e-002 -5.496213e-002 3.891281e-002 -1.823517e-003 -3.979899e-002 3.297802e-002 -1.145795e-001 -1.063016e-001
<VARIANCE> 39
 8.554130e+000 7.780543e+000 1.397842e+001 1.789337e+001 1.743835e+001 1.441959e+001 2.257274e+001 2.649281e+001 2.550974e+001 3.197633e+001 2.481388e+001 2.668027e+001 2.100429e+001 1.213330e-001 2.798633e-001 5.441326e-001 7.850263e-001 1.181346e+000 1.167124e+000 1.715101e+000 2.346319e+000 2.077552e+000 2.685103e+000 2.328990e+000 1.622473e+000 1.970850e+000 2.247536e-002 4.963951e-002 9.426404e-002 1.617653e-001 3.153825e-001 3.052284e-001 4.010243e-001 4.242175e-001 4.304592e-001 5.380492e-001 4.221136e-001 3.100080e-001 4.356039e-001
<GCONST> 9.134834e+001
<MIXTURE> 6 7.935728e-002
<MEAN> 39
 -2.742809e+000 -1.336762e+001 6.208924e+000 -2.970126e+000 1.096594e+001 2.598536e+000 5.829173e+000 3.855035e+000 3.214125e+000 6.204034e+000 1.601124e+000 2.249281e+000 3.730676e+000 2.324902e-001 -5.740425e-001 -1.273892e+000 -9.473519e-001 -4.120708e-001 -1.322438e-001 6.868392e-001 7.683306e-001 5.876921e-001 2.123500e-001 5.465971e-001 -3.461383e-001 3.110158e-001 3.349296e-001 6.533360e-001 -3.197213e-001 -4.759591e-002 -9.659435e-001 -3.492472e-001 -4.171582e-001 -1.847101e-001 -3.505682e-001 -4.400502e-001 1.896581e-002 -5.647765e-001 -1.225174e-001
<VARIANCE> 39
 1.273912e+001 1.117766e+001 1.808432e+001 2.154519e+001 1.271688e+001 2.098909e+001 3.418500e+001 2.718561e+001 2.530486e+001 4.389420e+001 3.768296e+001 2.246162e+001 2.581806e+001 3.122210e-001 2.312081e+000 1.079204e+000 1.529779e+000 2.179275e+000 1.286446e+000 1.246534e+000 1.398618e+000 3.304192e+000 3.140057e+000 3.761403e+000 3.269197e+000 5.775522e+000 7.568559e-002 2.941863e-001 2.507809e-001 3.154001e-001 4.197626e-001 5.112218e-001 5.693386e-001 4.156111e-001 4.430968e-001 9.833339e-001 6.430793e-001 4.750903e-001 7.188912e-001
<GCONST> 1.087232e+002
<STATE> 3
<NUMMIXES> 6
<MIXTURE> 1 2.393292e-001
<MEAN> 39
 6.713947e-001 -1.228922e+001 -2.096414e-001 -6.405443e+000 2.190598e+000 7.471614e-001 4.996555e+000 1.013225e+000 -2.326559e-001 4.412439e+000 8.388131e-001 -3.024491e+000 3.913815e+000 6.465961e-001 2.103789e+000 1.116614e+000 1.405012e+000 -1.072107e+000 3.050357e-001 4.651051e-001 6.558889e-001 -7.846351e-001 -2.662023e-001 -1.004119e-001 -1.936490e+000 1.234847e-001 6.444854e-001 1.160883e+000 3.115545e-001 6.041901e-001 -5.591933e-001 -7.791616e-001 -6.273863e-001 1.156984e-001 -9.637944e-002 -5.206994e-001 2.430883e-001 -3.539926e-001 -4.858695e-001
<VARIANCE> 39
 1.096012e+001 1.241072e+001 1.345030e+001 1.690166e+001 1.404248e+001 1.681124e+001 2.684677e+001 2.607799e+001 2.447416e+001 3.307864e+001 3.346794e+001 2.481221e+001 1.346899e+001 3.184741e-001 1.804344e+000 7.802910e-001 1.564077e+000 1.219340e+000 1.520202e+000 1.635244e+000 1.614386e+000 2.545223e+000 1.559295e+000 2.746846e+000 2.737870e+000 2.063507e+000 7.737628e-002 2.355815e-001 1.921733e-001 2.617332e-001 2.663609e-001 3.320099e-001 3.568598e-001 3.848497e-001 3.562773e-001 4.481760e-001 6.366778e-001 5.034330e-001 2.925747e-001
<GCONST> 9.979740e+001
<MIXTURE> 2 1.406386e-001
<MEAN> 39
 2.851827e+000 -1.810109e+000 7.084721e+000 2.389946e+000 4.995849e-001 1.714510e+000 4.013816e+000 2.043854e+000 -2.233162e+000 3.405625e+000 1.254057e-001 -8.165647e+000 3.466578e+000 3.290215e+000 4.444869e+000 4.169901e-001 1.191943e+000 -4.205409e+000 -3.508948e+000 -2.356761e+000 -1.403889e-001 -1.393716e+000 -1.929945e+000 7.017843e-001 -2.617702e+000 -1.342726e+000 5.296350e-001 -4.804028e-001 -8.241163e-001 -7.221419e-001 -6.664409e-001 -7.174606e-001 -2.728316e-001 -2.892872e-001 3.185696e-001 -2.126305e-001 3.521996e-002 4.480754e-001 -1.523597e-001
<VARIANCE> 39
 1.060967e+001 1.749698e+001 1.199034e+001 1.283110e+001 1.107672e+001 3.032892e+001 3.377150e+001 2.222977e+001 1.846322e+001 2.054481e+001 3.196872e+001 1.757914e+001 1.273570e+001 7.596861e-001 1.547236e+000 1.959700e+000 1.337314e+000 1.667461e+000 2.180207e+000 2.221259e+000 2.609326e+000 1.373633e+000 2.813591e+000 2.202664e+000 2.173785e+000 2.256204e+000 5.042287e-002 3.242586e-001 1.294950e-001 2.562385e-001 2.806551e-001 4.275535e-001 5.212964e-001 4.026947e-001 3.064738e-001 2.510140e-001 4.443814e-001 4.423681e-001 2.005462e-001
<GCONST> 1.000951e+002
<MIXTURE> 3 1.766626e-001
<MEAN> 39
 -5.411571e-002 -1.027773e+001 2.694686e+000 -3.906699e+000 2.068967e+000 2.014478e+000 6.886906e+000 3.373493e+000 1.558637e+000 4.284901e+000 5.031138e+000 -7.286903e+000 3.818147e+000 2.251296e+000 4.594018e+000 9.871121e-001 2.129023e+000 -2.398659e+000 -2.396779e+000 -1.910129e+000 4.949580e-001 -8.295454e-001 -2.165570e+000 5.031246e-001 -1.759093e+000 -2.247320e+000 8.803530e-001 5.289426e-001 -4.553185e-001 1.071143e-002 -7.679737e-001 -1.114336e+000 -8.922888e-001 -1.521230e-001 -2.574250e-001 -4.299773e-001 -1.562657e-001 2.433014e-001 -5.973172e-001
<VARIANCE> 39
 1.108039e+001 8.810502e+000 1.202034e+001 2.451511e+001 1.960168e+001 1.762445e+001 3.075580e+001 2.318845e+001 2.005406e+001 3.243549e+001 3.982134e+001 1.956304e+001 1.848393e+001 8.500848e-001 8.510714e-001 9.942361e-001 1.020444e+000 2.212805e+000 1.881160e+000 1.879893e+000 2.020980e+000 1.671060e+000 2.380135e+000 1.358385e+000 2.469880e+000 1.735733e+000 7.009726e-002 3.509914e-001 1.602046e-001 3.689469e-001 3.258063e-001 3.927869e-001 5.640245e-001 5.134566e-001 4.227772e-001 3.535937e-001 7.919300e-001 4.438279e-001 4.419312e-001
<GCONST> 1.024145e+002
<MIXTURE> 4 1.980005e-001
<MEAN> 39
 -6.272807e-001 -1.269848e+001 8.288095e-001 -4.486190e+000 5.509519e+000 2.148384e+000 4.708334e+000 2.246214e+000 2.999880e+000 7.394310e+000 1.643156e+000 -1.410591e+000 6.818576e+000 9.925780e-001 2.182798e+000 1.028168e+000 8.431553e-001 -1.786134e+000 -9.190470e-001 -1.004058e+000 -4.946370e-001 -1.123201e+000 -6.643645e-001 -5.151402e-001 -2.143198e+000 8.046731e-002 8.178021e-001 1.199932e+000 1.737844e-001 3.123788e-001 -1.091908e+000 -9.108188e-001 -5.728281e-001 -2.770997e-003 -5.841775e-001 -7.360184e-001 -2.870924e-002 -6.695706e-001 -8.254240e-001
<VARIANCE> 39
 1.026506e+001 7.798034e+000 1.577559e+001 1.458087e+001 1.626808e+001 2.812195e+001 2.100258e+001 2.056537e+001 1.881035e+001 2.399603e+001 2.093361e+001 2.648196e+001 1.454751e+001 5.965229e-001 1.921111e+000 1.395213e+000 1.846878e+000 2.021902e+000 1.254787e+000 1.284042e+000 1.690791e+000 3.253068e+000 4.078730e+000 2.593761e+000 1.942758e+000 2.469310e+000 6.830903e-002 1.752437e-001 1.905574e-001 2.779124e-001 3.371773e-001 3.745696e-001 4.481939e-001 5.756997e-001 3.246203e-001 3.699543e-001 3.573075e-001 5.268276e-001 4.160824e-001
<GCONST> 1.012414e+002
<MIXTURE> 5 1.004234e-001
<MEAN> 39
 3.434927e+000 -5.431112e+000 6.538072e+000 -2.865344e+000 2.421392e+000 -3.157991e-001 2.819343e+000 7.587566e-001 -1.215921e+000 -4.815912e-001 2.455308e+000 -7.950249e+000 3.870640e+000 3.219414e+000 4.716742e+000 -6.591601e-001 1.366240e+000 -4.181243e+000 -3.535772e+000 -2.600500e+000 7.308857e-003 -1.737366e+000 -2.646308e+000 -7.113334e-001 -2.358270e+000 -2.911261e+000 5.367370e-001 -1.588116e-001 -7.717117e-001 1.167853e-001 -8.934355e-001 -6.599135e-001 -5.127359e-002 1.771171e-001 2.803112e-001 4.774677e-001 -3.031486e-001 4.611488e-001 -5.380608e-001
<VARIANCE> 39
 9.570774e+000 1.308525e+001 2.911339e+001 2.418681e+001 1.795824e+001 3.597367e+001 1.709684e+001 2.048660e+001 4.067045e+001 1.651325e+001 4.098358e+001 4.374654e+001 3.351408e+001 6.503426e-001 1.486794e+000 2.720142e+000 2.452498e+000 3.089511e+000 2.274824e+000 3.489692e+000 1.999874e+000 3.009483e+000 2.620692e+000 2.159146e+000 5.477127e+000 2.786082e+000 1.239658e-001 2.798882e-001 4.443566e-001 3.848050e-001 4.114992e-001 8.695571e-001 3.632555e-001 5.484214e-001 8.376060e-001 5.020418e-001 7.909155e-001 8.828931e-001 5.686071e-001
<GCONST> 1.146659e+002
<MIXTURE> 6 1.449447e-001
<MEAN> 39
 -5.352855e-002 -1.122308e+001 1.875189e+000 -2.619098e+000 3.540280e+000 2.813456e+000 5.507535e+000 4.113676e+000 -8.294556e-001 8.208789e+000 2.366679e+000 -2.340470e+000 6.764449e+000 2.409875e+000 4.260869e+000 1.033413e+000 1.427033e+000 -3.356173e+000 -2.691376e+000 -2.092366e+000 -6.382579e-001 -2.233952e+000 -2.341672e+000 -5.501753e-001 -3.176793e+000 -1.378355e+000 9.030597e-001 6.723581e-001 -2.558556e-001 3.845124e-003 -1.120651e+000 -1.105463e+000 -5.650500e-001 -1.684770e-001 1.251284e-001 -7.846991e-001 -2.382580e-002 -3.747493e-001 -7.422053e-001
<VARIANCE> 39
 6.818764e+000 1.189378e+001 2.298208e+001 1.808871e+001 3.010882e+001 1.479068e+001 2.536218e+001 2.394922e+001 3.644479e+001 4.213274e+001 3.596157e+001 4.311531e+001 4.619985e+001 6.419149e-001 1.511291e+000 1.983957e+000 2.468994e+000 1.120233e+000 1.880560e+000 2.565377e+000 1.578954e+000 2.290431e+000 2.354790e+000 1.899666e+000 1.421055e+000 1.482978e+000 6.146703e-002 3.462667e-001 4.443851e-001 3.226928e-001 4.894676e-001 3.715307e-001 4.999904e-001 5.820520e-001 6.844316e-001 7.645500e-001 6.521590e-001 8.989367e-001 6.000266e-001
<GCONST> 1.094784e+002
<STATE> 4
<NUMMIXES> 6
<MIXTURE> 1 1.195551e-001
<MEAN> 39
 1.388395e+001 3.402809e+000 -5.818275e-001 1.966388e-001 -1.320169e+001 -1.077690e+001 -6.014127e+000 6.451204e+000 -5.190849e+000 -4.184356e-001 1.653767e-001 -1.175168e+001 -3.581665e+000 2.154563e+000 -8.635400e-004 -1.942714e+000 4.238838e-001 -3.823668e+000 -3.858178e-001 8.646937e-001 6.086364e-001 6.032654e-001 1.137651e+000 -6.708015e-001 2.538372e-001 -4.868716e-002 -9.542450e-001 -1.437501e+000 3.644292e-001 -2.460331e-001 9.798591e-001 1.048407e+000 1.457984e+000 -1.051380e+000 9.108614e-001 7.033072e-001 -2.587246e-001 1.176699e+000 8.192741e-001
<VARIANCE> 39
 1.104192e+001 8.399152e+000 1.693120e+001 1.508206e+001 3.746351e+001 8.665733e+000 1.585244e+001 2.577250e+001 1.956558e+001 4.399959e+001 1.179909e+001 2.873856e+001 3.097837e+001 4.708666e-001 1.567965e+000 2.039965e+000 2.035991e+000 1.713006e+000 2.491150e+000 4.515796e+000 2.338457e+000 2.473973e+000 1.723663e+000 1.611715e+000 5.317011e+000 1.600106e+000 7.716125e-002 1.782093e-001 4.483833e-001 5.018428e-001 5.604943e-001 2.550347e-001 4.962508e-001 6.948395e-001 3.432404e-001 6.209338e-001 4.033937e-001 5.124385e-001 4.082378e-001
<GCONST> 1.057533e+002
<MIXTURE> 2 1.174504e-001
<MEAN> 39
 8.344111e+000 5.919552e+000 4.652154e+000 -2.069310e+000 -2.598734e+000 -9.825996e+000 -5.150319e+000 1.677653e+000 -2.012867e+000 -7.118882e+000 2.498086e+000 -9.105563e+000 -5.322519e+000 3.165630e+000 4.486392e+000 -2.081661e+000 4.123303e-001 -3.535184e+000 -4.421855e+000 -2.650937e+000 5.716623e-001 -7.166520e-001 -2.113621e+000 -3.064535e-001 -7.035977e-001 -2.540741e+000 -8.194314e-002 -1.437888e+000 -7.493311e-001 -1.284822e-001 -2.089235e-001 5.750855e-001 1.053353e+000 -1.714708e-002 1.322420e-001 9.980033e-001 -9.310453e-002 5.847090e-001 7.464542e-001
<VARIANCE> 39
 1.479237e+001 8.337279e+000 1.315264e+001 1.787454e+001 1.898079e+001 2.192581e+001 2.380549e+001 1.681621e+001 2.573031e+001 1.621567e+001 1.663529e+001 1.558431e+001 1.942329e+001 3.426566e-001 1.892720e+000 3.267101e+000 1.820559e+000 1.439844e+000 2.802414e+000 6.757472e+000 3.530646e+000 2.100000e+000 2.327642e+000 3.585775e+000 6.195822e+000 2.011584e+000 9.688949e-002 2.422561e-001 2.507442e-001 4.614802e-001 2.301278e-001 6.875988e-001 7.920867e-001 4.405285e-001 4.371476e-001 4.405660e-001 3.358892e-001 2.646692e-001 5.222605e-001
<GCONST> 1.063149e+002
<MIXTURE> 3 1.812596e-001
<MEAN> 39
 6.945756e+000 3.477899e+000 4.375877e+000 1.594476e+000 -6.009389e+000 -6.365136e+000 -4.704784e-001 1.910693e+000 -4.019764e+000 -3.855454e-001 1.269274e+000 -1.144434e+001 -4.060973e-002 3.646855e+000 3.371492e+000 7.860183e-002 1.139273e+000 -4.734904e+000 -3.640727e+000 -2.155673e+000 -1.338238e-001 -1.080862e+000 -1.923055e+000 3.913469e-001 -1.966273e+000 -1.969883e+000 -6.709215e-002 -1.332577e+000 -5.904891e-001 -6.359877e-001 -8.003139e-002 3.011639e-001 4.250344e-001 -3.263408e-001 8.452224e-001 6.123536e-001 -2.114568e-001 1.059285e+000 2.025971e-001
<VARIANCE> 39
 5.366664e+000 5.925690e+000 1.140629e+001 5.284848e+000 1.589579e+001 1.249788e+001 1.109511e+001 3.431695e+001 1.290364e+001 9.009161e+000 1.225451e+001 1.102509e+001 8.830344e+000 5.701000e-001 1.079915e+000 1.701813e+000 2.055323e+000 2.291269e+000 2.101245e+000 2.176564e+000 4.171049e+000 3.097383e+000 2.358212e+000 2.257561e+000 2.192320e+000 2.032223e+000 7.205845e-002 1.251173e-001 1.284935e-001 2.690251e-001 2.986163e-001 2.607433e-001 2.248457e-001 4.574527e-001 4.632108e-001 4.179187e-001 3.680713e-001 3.725130e-001 1.935769e-001
<GCONST> 9.297901e+001
<MIXTURE> 4 1.512705e-001
<MEAN> 39
 1.008762e+001 4.783381e+000 1.046254e+000 1.421611e-001 -8.335911e+000 -1.125537e+001 -5.771952e+000 3.265993e+000 -2.598467e+000 -5.609977e+000 6.911412e+000 -9.050303e+000 -3.997802e+000 3.439601e+000 2.187379e+000 -1.798179e+000 7.890159e-002 -4.265942e+000 -4.148801e+000 -3.007845e+000 -2.140978e-001 -1.473528e+000 -1.589106e+000 -2.640626e-001 -8.653121e-001 -1.745736e+000 -5.510595e-001 -1.661154e+000 -2.186341e-001 -6.011794e-001 3.328165e-001 8.150347e-001 1.165178e+000 -2.680672e-001 1.807157e-001 9.273342e-001 -6.431320e-001 1.741414e-001 6.481817e-001
<VARIANCE> 39
 9.459598e+000 1.205217e+001 1.025423e+001 1.092558e+001 1.608211e+001 2.136931e+001 1.960701e+001 1.652453e+001 9.348664e+000 1.599648e+001 1.258621e+001 1.231843e+001 1.355304e+001 4.926849e-001 1.115881e+000 1.342039e+000 2.902412e+000 3.068810e+000 2.236214e+000 2.333286e+000 3.494282e+000 1.251729e+000 2.016148e+000 3.272021e+000 2.653290e+000 2.717679e+000 9.941347e-002 5.962998e-002 1.965660e-001 1.746984e-001 2.764781e-001 4.957836e-001 4.220732e-001 3.721096e-001 1.857872e-001 4.379973e-001 3.037504e-001 1.643197e-001 2.747945e-001
<GCONST> 9.514744e+001
<MIXTURE> 5 2.114032e-001
<MEAN> 39
 1.244813e+001 2.234172e+000 1.396479e+000 5.454546e-001 -1.187358e+001 -9.438108e+000 -3.220632e+000 1.380835e+000 -6.432961e+000 -7.641600e-001 6.764246e-001 -1.163476e+001 -3.477322e-001 3.474520e+000 1.630206e+000 -6.037391e-001 2.813758e-001 -5.008389e+000 -2.733753e+000 -1.346698e+000 -4.978161e-001 8.954503e-002 -8.605528e-001 -1.772921e-001 -1.166675e+000 -1.401557e+000 -7.623926e-001 -1.343449e+000 -1.634571e-001 -4.246847e-001 5.912586e-001 9.858533e-001 8.565429e-001 -5.349177e-001 1.277831e+000 6.124033e-001 -3.589674e-001 1.339278e+000 2.829341e-001
<VARIANCE> 39
 9.605147e+000 7.400830e+000 5.574383e+000 8.205022e+000 9.505196e+000 1.364591e+001 1.023220e+001 2.154712e+001 1.922968e+001 7.880649e+000 1.384837e+001 8.299202e+000 2.276514e+001 6.281599e-001 1.664560e+000 1.211662e+000 1.707448e+000 2.079344e+000 2.369913e+000 1.841078e+000 3.071654e+000 2.237405e+000 1.998467e+000 1.840276e+000 4.168424e+000 2.487239e+000 6.697366e-002 1.384121e-001 1.454884e-001 1.266550e-001 2.113036e-001 1.868223e-001 2.466986e-001 4.034378e-001 3.418916e-001 2.347348e-001 2.974526e-001 1.878922e-001 5.180596e-001
<GCONST> 9.118198e+001
<MIXTURE> 6 2.190611e-001
<MEAN> 39
 1.309679e+001 4.469313e+000 -5.155433e-001 -2.138131e+000 -1.217667e+001 -1.343784e+001 -5.685579e+000 3.535948e+000 -4.509898e+000 -3.420220e+000 5.338815e+000 -1.206759e+001 -2.656433e+000 1.624048e+000 -5.440127e-001 -1.448049e+000 -6.018456e-001 -2.486202e+000 -8.630021e-001 4.923247e-001 -1.098231e-001 -2.845739e-001 9.264277e-002 -8.658760e-001 -7.836776e-001 -1.568750e-001 -8.918794e-001 -1.105795e+000 2.846443e-001 5.709402e-002 8.389604e-001 1.442060e+000 1.262038e+000 -3.372983e-001 4.003696e-001 6.096649e-001 -6.968256e-001 4.179918e-001 4.928436e-001
<VARIANCE> 39
 1.612977e+001 1.457147e+001 9.067372e+000 8.798435e+000 1.350807e+001 1.962331e+001 2.049280e+001 3.354921e+001 1.325579e+001 1.954419e+001 1.477312e+001 1.001529e+001 1.427203e+001 6.975212e-001 8.258591e-001 9.638487e-001 8.164440e-001 1.631630e+000 2.066915e+000 2.368020e+000 2.378212e+000 1.238739e+000 1.630753e+000 1.709941e+000 1.256359e+000 1.404568e+000 4.825091e-002 2.306562e-001 2.115551e-001 1.889189e-001 2.188926e-001 2.821913e-001 5.015306e-001 8.465672e-001 1.956258e-001 2.159187e-001 1.918805e-001 3.657199e-001 2.291636e-001
<GCONST> 9.214867e+001
<STATE> 5
<NUMMIXES> 6
<MIXTURE> 1 8.037692e-002
<MEAN> 39
 1.259018e+001 2.527154e+000 -2.173630e+000 5.774099e-001 -1.094731e+001 -1.493368e+001 1.804208e-001 -6.977869e-001 7.635245e-001 -4.507751e+000 3.415289e+000 -4.333628e+000 -8.527888e+000 1.055216e+000 5.342027e-002 -1.307608e+000 8.551498e-001 -2.180990e+000 -2.864138e+000 1.492883e+000 -1.897282e+000 -8.719500e-001 1.804100e+000 -2.027126e+000 9.601287e-001 -2.253842e-001 -1.207268e+000 -8.666550e-001 8.364434e-001 2.868758e-001 9.708531e-001 1.170102e+000 7.657025e-001 -3.349627e-001 -2.084077e-001 1.044889e+000 -1.103031e-001 -1.470443e-001 1.304703e+000
<VARIANCE> 39
 7.730786e+000 1.507144e+001 1.623601e+001 1.317515e+001 3.099646e+001 9.231987e+000 7.979855e+000 1.279689e+001 1.560289e+001 2.010169e+001 1.611617e+001 1.641775e+001 8.826615e+000 1.058167e+000 2.538355e+000 3.120266e+000 1.135553e+000 1.529657e+000 6.433675e+000 2.502401e+000 1.056808e+000 1.255010e+000 1.765691e+000 2.000837e+000 1.485382e+000 5.233657e+000 1.106549e-001 3.687394e-001 4.966472e-001 2.342950e-001 4.435583e-001 4.048633e-001 4.271604e-001 4.281824e-001 2.798891e-001 3.752043e-001 4.271130e-001 4.050263e-001 3.684897e-001
<GCONST> 1.008674e+002
<MIXTURE> 2 2.315496e-001
<MEAN> 39
 1.190151e+001 1.721733e+000 -1.201844e+000 -1.510510e+000 -1.341417e+001 -1.076926e+001 1.489008e+000 3.071097e+000 -3.575495e+000 -5.441510e+000 8.504863e-001 -1.554152e+001 -2.408298e+000 -1.865323e-001 1.052073e-002 1.765593e-001 7.055633e-001 -2.953670e-001 1.369216e+000 1.515024e+000 -2.112974e-001 5.142692e-001 4.119460e-001 -1.180060e+000 2.348058e-001 -9.271934e-002 -3.092580e-001 2.415058e-001 1.618866e-001 2.986640e-001 2.175136e-001 1.717100e-001 8.611988e-002 -1.416016e-001 2.628738e-001 2.918454e-001 4.360965e-002 5.635961e-001 -5.253415e-002
<VARIANCE> 39
 6.052522e+000 4.879394e+000 1.303339e+001 8.734445e+000 1.889186e+001 2.420766e+001 2.037843e+001 1.606408e+001 1.714686e+001 2.062436e+001 2.241303e+001 4.834447e+000 7.126418e+000 3.307926e-001 2.958970e-001 4.889560e-001 3.862087e-001 7.346417e-001 5.207136e-001 1.064410e+000 8.788584e-001 9.158883e-001 1.337395e+000 1.165975e+000 1.253480e+000 4.484100e-001 4.056888e-002 4.535225e-002 1.196783e-001 5.294087e-002 1.557372e-001 2.287804e-001 1.813196e-001 2.262831e-001 1.822360e-001 1.511818e-001 1.703871e-001 1.577029e-001 1.053358e-001
<GCONST> 7.164658e+001
<MIXTURE> 3 1.966781e-001
<MEAN> 39
 1.359965e+001 1.075899e+000 -1.082608e+000 -6.528187e-001 -1.287886e+001 -8.957402e+000 2.665064e+000 3.551024e+000 -1.669112e+000 -4.783714e-001 1.666929e+000 -1.080908e+001 -1.445056e+000 1.193753e-001 -5.738062e-001 -1.135288e-001 6.283448e-001 -1.447401e+000 8.101487e-001 1.968693e+000 -1.676557e+000 1.323441e+000 7.884265e-001 -1.423904e+000 1.372595e+000 5.045619e-001 -8.031194e-001 -1.033219e-001 4.956225e-001 2.999958e-001 4.592764e-001 3.471631e-001 9.830241e-002 -8.708369e-001 2.932607e-001 1.055145e-001 -5.338277e-001 5.951857e-001 -1.991220e-002
<VARIANCE> 39
 6.450442e+000 9.801530e+000 1.376285e+001 6.303180e+000 1.084105e+001 1.305137e+001 1.459047e+001 1.801687e+001 1.496310e+001 2.660783e+001 1.092026e+001 2.116568e+001 1.433788e+001 4.201396e-001 8.428853e-001 3.869681e-001 9.220116e-001 8.741459e-001 5.484934e-001 1.254889e+000 1.695595e+000 1.123793e+000 1.067630e+000 6.409416e-001 1.572911e+000 8.745409e-001 9.928280e-002 1.699279e-001 1.480112e-001 1.306724e-001 2.201510e-001 3.519017e-001 3.964429e-001 2.373428e-001 1.964438e-001 1.983589e-001 1.473609e-001 3.834144e-001 3.203548e-001
<GCONST> 8.270512e+001
<MIXTURE> 4 1.576346e-001
<MEAN> 39
 1.738203e+001 5.282605e+000 -5.203722e+000 -1.220436e+000 -1.661345e+001 -9.664370e+000 -3.313182e+000 1.597226e+000 -5.887276e+000 -6.085643e+000 -3.474068e-001 -1.164993e+001 -3.288237e+000 1.389768e-001 -6.956284e-001 -3.345375e-001 9.119612e-002 -1.231982e+000 3.891232e-001 8.920931e-001 -1.624615e+000 -2.460092e-001 4.683593e-002 -2.011710e+000 2.796039e-002 -2.149020e-001 -3.864030e-001 1.233233e-001 4.831936e-001 4.188606e-002 3.509465e-001 -1.994024e-002 4.458345e-003 -4.627058e-001 1.447079e-001 1.805471e-001 -7.119381e-002 2.833149e-001 -4.388824e-002
<VARIANCE> 39
 1.573317e+001 8.243159e+000 1.312646e+001 6.049428e+000 2.796585e+001 1.847330e+001 1.404273e+001 2.756060e+001 1.738453e+001 9.893452e+000 1.603590e+001 1.884452e+001 2.932431e+001 2.052178e-001 2.796013e-001 1.043409e+000 7.821534e-001 7.814858e-001 6.030512e-001 8.713802e-001 1.173143e+000 7.386567e-001 1.093584e+000 1.019227e+000 1.041500e+000 1.235579e+000 6.700152e-002 9.869373e-002 1.421334e-001 1.523168e-001 1.041557e-001 2.097011e-001 1.746898e-001 1.810774e-001 1.316901e-001 1.029765e-001 1.871953e-001 1.421057e-001 2.711278e-001
<GCONST> 7.826430e+001
<MIXTURE> 5 1.604985e-001
<MEAN> 39
 1.403947e+001 1.294932e+000 4.587032e-002 -5.006942e-001 -1.732087e+001 -7.919298e+000 -1.272335e+000 2.087286e+000 -4.983464e+000 -5.963719e-001 -3.441315e+000 -1.238897e+001 -2.396321e-001 4.969499e-001 -9.075167e-001 -2.695991e-001 -4.992726e-001 -1.199252e+000 4.050811e-001 1.610148e+000 -1.311669e+000 1.160869e+000 1.200130e-001 -1.414199e+000 5.732000e-001 1.298877e-001 -8.161064e-001 -3.362507e-001 4.506172e-001 1.454811e-001 9.273782e-001 6.417248e-001 4.609550e-001 -5.288152e-001 7.388107e-001 -6.919509e-002 -1.526995e-002 8.293002e-001 -4.991937e-002
<VARIANCE> 39
 2.168716e+001 1.108964e+001 1.438575e+001 1.443823e+001 1.793831e+001 2.411018e+001 2.679470e+001 2.669200e+001 2.251848e+001 3.571293e+001 1.623287e+001 2.376455e+001 1.999804e+001 6.224586e-001 4.161665e-001 8.440083e-001 1.604603e+000 1.625517e+000 9.410784e-001 2.307007e+000 4.192885e+000 1.718064e+000 1.111458e+000 1.674679e+000 1.692728e+000 1.184042e+000 2.142680e-001 2.583519e-001 3.954596e-001 2.876103e-001 4.363582e-001 3.626285e-001 5.095894e-001 1.057300e+000 3.349683e-001 5.372772e-001 2.408410e-001 6.212046e-001 1.678496e-001
<GCONST> 1.013544e+002
<MIXTURE> 6 1.732620e-001
<MEAN> 39
 1.363203e+001 -6.366893e-001 1.060553e+000 3.925978e-001 -1.533566e+001 -1.044349e+001 -2.685053e-001 4.297318e-001 -2.103388e+000 7.593005e-001 9.937767e-001 -1.223783e+001 1.960804e-001 1.369823e+000 -6.116229e-001 -1.070947e-001 2.852298e-001 -3.358431e+000 -5.173991e-001 3.913447e-001 -2.556788e+000 2.560242e+000 1.787865e-001 -1.024490e+000 1.351494e+000 -9.028947e-001 -1.413434e+000 -6.166345e-001 3.942794e-001 1.656449e-001 1.167415e+000 1.258831e+000 6.117097e-001 -9.032119e-001 8.362808e-001 2.647970e-001 -5.120325e-001 1.451010e+000 1.127528e-001
<VARIANCE> 39
 7.869694e+000 5.586313e+000 7.111588e+000 8.443663e+000 7.246500e+000 1.095915e+001 9.175088e+000 2.009983e+001 1.223548e+001 1.040146e+001 1.179496e+001 1.964981e+001 1.086216e+001 8.953028e-001 8.646863e-001 8.403709e-001 9.247150e-001 1.322750e+000 2.488552e+000 1.609982e+000 1.956512e+000 2.369453e+000 2.033932e+000 1.954723e+000 3.240481e+000 1.898200e+000 1.266118e-001 2.439479e-001 2.195141e-001 1.612156e-001 2.805949e-001 3.555501e-001 2.221116e-001 5.034605e-001 2.863491e-001 3.850701e-001 2.627065e-001 3.806051e-001 3.561125e-001
<GCONST> 9.086040e+001
<STATE> 6
<NUMMIXES> 6
<MIXTURE> 1 1.001296e-001
<MEAN> 39
 1.196353e+001 1.068385e+000 -3.008453e-001 2.936074e+000 -1.615458e+001 -1.388757e+001 2.413363e+000 -6.928812e+000 4.032440e-001 2.302009e+000 -1.875532e+000 -3.319112e+000 -5.025877e+000 -1.349048e+000 3.566362e-001 1.305600e+000 2.254890e+000 -5.055304e-001 -4.780095e-001 1.515216e+000 -3.964708e+000 4.480338e-001 1.433617e+000 -2.107386e+000 2.362855e+000 6.242833e-001 -1.523164e+000 2.230905e-001 9.161980e-001 3.383932e-001 1.748948e+000 1.045942e+000 -1.532184e-001 4.270324e-001 -2.619915e-001 -3.554568e-001 2.724036e-001 -2.588975e-001 4.717611e-001
<VARIANCE> 39
 8.251654e+000 1.367613e+001 2.147232e+001 1.203682e+001 3.049554e+001 2.510699e+001 2.006501e+001 2.430621e+001 2.345580e+001 1.555840e+001 1.510110e+001 1.985991e+001 2.164603e+001 3.645805e-001 2.947266e-001 1.095514e+000 4.573587e-001 1.203767e+000 3.625771e+000 1.382943e+000 3.958415e+000 5.163079e+000 3.096902e+000 1.604283e+000 4.116816e+000 1.343945e+000 1.928836e-001 5.272663e-001 4.445629e-001 2.023383e-001 7.106078e-001 6.221060e-001 5.040750e-001 6.578351e-001 6.261558e-001 4.129196e-001 5.803391e-001 4.880073e-001 4.388605e-001
<GCONST> 1.046215e+002
<MIXTURE> 2 2.458589e-001
<MEAN> 39
 1.153959e+001 1.149858e+000 1.499379e+000 -4.992540e-001 -1.594582e+001 -6.390738e+000 2.297687e+000 -7.634862e-001 -5.961692e-001 8.150865e-001 -4.444636e+000 -9.674101e+000 4.137321e-001 -4.163056e-001 -1.119979e-001 4.962107e-001 3.843906e-001 -4.705939e-001 8.557863e-001 4.972761e-001 -9.156298e-001 1.314494e+000 3.232070e-001 -8.972973e-001 1.366795e+000 -6.465250e-001 -3.069281e-001 4.525273e-002 1.973197e-001 3.098557e-001 3.719231e-002 -3.995258e-003 -3.178837e-001 -2.070578e-001 2.308050e-001 -5.365349e-002 2.275838e-001 2.582868e-001 -2.489149e-001
<VARIANCE> 39
 1.258287e+001 7.395715e+000 9.260581e+000 8.367489e+000 8.650822e+000 1.370675e+001 1.734873e+001 2.354617e+001 1.683692e+001 1.763615e+001 1.453838e+001 1.432538e+001 1.386728e+001 3.725048e-001 2.242944e-001 3.883029e-001 8.344930e-001 5.910569e-001 9.915015e-001 1.796880e+000 1.463851e+000 1.316134e+000 1.582670e+000 9.293767e-001 9.428966e-001 7.729339e-001 5.950242e-002 5.705424e-002 2.832089e-002 1.060367e-001 1.501179e-001 1.778679e-001 2.985044e-001 1.868447e-001 2.424407e-001 2.290904e-001 1.523443e-001 1.624156e-001 1.665148e-001
<GCONST> 7.579259e+001
<MIXTURE> 3 1.960046e-001
<MEAN> 39
 1.127690e+001 1.608211e+000 -2.188703e-002 2.477845e+000 -1.588264e+001 -6.807726e+000 6.229315e+000 -3.860353e+000 2.701400e+000 -4.066509e-002 -4.901428e+000 -7.199202e+000 -4.131923e+000 -1.581810e+000 4.887316e-001 1.150700e+000 1.847856e+000 -7.133277e-001 2.596874e-002 8.743035e-001 -3.325006e+000 2.017015e+000 9.906936e-001 -1.326480e+000 2.484932e+000 -1.002721e+000 -9.719866e-001 2.957582e-001 3.669657e-001 3.689329e-001 7.769138e-001 -1.065912e-001 -5.560214e-001 3.815966e-002 -2.181327e-001 4.585652e-002 4.873520e-001 7.317249e-002 9.088346e-002
<VARIANCE> 39
 1.460786e+001 1.632795e+001 2.302612e+001 5.560128e+000 9.373254e+000 1.148682e+001 2.766069e+001 2.970116e+001 1.434470e+001 3.373673e+001 2.075005e+001 2.433721e+001 8.230888e+000 4.045820e-001 4.693330e-001 5.871034e-001 6.138830e-001 7.301576e-001 1.257696e+000 1.424776e+000 3.184373e+000 1.770399e+000 1.291370e+000 1.263537e+000 1.947793e+000 9.029892e-001 2.115667e-001 2.444250e-001 1.421435e-001 1.398714e-001 4.473986e-001 1.653510e-001 2.197668e-001 4.794953e-001 3.279524e-001 5.595250e-001 2.903392e-001 3.415493e-001 1.698165e-001
<GCONST> 9.076548e+001
<MIXTURE> 4 1.535675e-001
<MEAN> 39
 1.423902e+001 7.892020e-001 4.280428e+000 -4.273145e+000 -1.962009e+001 -5.481843e+000 -1.574628e-001 -4.627507e+000 3.447186e+000 2.042488e-001 -4.981747e+000 -3.952041e+000 -7.982797e-001 -3.108649e-001 -3.898040e-001 5.558893e-001 1.454540e-002 -5.557359e-001 6.267506e-001 -7.068940e-001 -1.537732e+000 1.387347e+000 -1.753290e+000 -3.840627e-002 1.121841e+000 -1.085440e+000 -4.565248e-001 2.523705e-001 8.330899e-002 6.306417e-001 2.947119e-001 -7.701841e-002 -5.375492e-001 -3.191195e-001 -3.536073e-002 -2.919531e-001 4.580281e-001 -1.181116e-001 -1.776430e-001
<VARIANCE> 39
 2.067126e+001 6.948374e+000 1.095286e+001 1.014857e+001 1.737971e+001 1.009881e+001 1.291588e+001 2.802883e+001 1.496591e+001 2.361408e+001 1.244703e+001 1.985365e+001 1.050204e+001 1.838515e-001 3.339220e-001 3.499290e-001 9.260167e-001 8.236086e-001 8.352883e-001 1.910916e+000 1.371243e+000 1.977811e+000 1.496582e+000 1.622576e+000 6.226768e-001 1.360653e+000 6.759681e-002 5.743941e-002 7.913591e-002 1.751659e-001 1.856802e-001 1.939618e-001 1.798842e-001 1.936901e-001 1.785012e-001 3.546173e-001 2.111323e-001 1.119442e-001 2.786767e-001
<GCONST> 7.992599e+001
<MIXTURE> 5 2.199134e-001
<MEAN> 39
 1.404828e+001 -1.110411e+000 1.236723e+000 7.214478e-001 -1.789647e+001 -8.080426e+000 2.568926e+000 -2.836453e+000 9.975773e-001 1.339963e+000 -2.957830e+000 -7.706577e+000 -1.295985e+000 -4.951666e-001 -2.955874e-001 8.600904e-001 1.027270e+000 -1.500649e+000 5.371320e-001 6.551563e-001 -3.539774e+000 2.166721e+000 6.539965e-002 -1.818554e+000 2.692627e+000 -1.116926e+000 -1.109652e+000 5.716057e-001 5.391874e-001 5.532903e-001 9.178228e-001 1.065348e-001 -2.157944e-001 -6.135879e-001 7.762452e-002 -3.244958e-001 4.041093e-002 3.864146e-001 -3.202536e-001
<VARIANCE> 39
 9.508783e+000 7.406657e+000 8.836196e+000 7.195713e+000 8.126685e+000 1.498622e+001 1.536660e+001 1.168959e+001 1.460410e+001 1.367558e+001 1.178670e+001 2.135576e+001 1.755339e+001 1.569533e-001 4.433377e-001 6.078634e-001 3.352062e-001 6.664244e-001 9.046980e-001 1.524934e+000 1.731359e+000 1.249346e+000 2.268624e+000 1.352777e+000 1.192569e+000 2.073971e+000 1.900369e-001 1.370450e-001 9.373938e-002 1.273723e-001 3.620771e-001 2.873780e-001 2.707852e-001 2.422596e-001 3.526850e-001 1.908315e-001 2.481502e-001 4.337139e-001 2.463394e-001
<GCONST> 8.283456e+001
<MIXTURE> 6 8.452584e-002
<MEAN> 39
 1.492391e+001 2.125557e+000 -2.473323e+000 -8.118093e-002 -1.973499e+001 -7.876715e+000 -8.752519e-001 -2.511867e+000 -3.613642e+000 -3.841602e+000 -9.518705e+000 -1.086851e+001 -2.671655e+000 -1.105704e+000 4.909551e-002 1.303274e+000 1.350777e+000 -9.957523e-001 5.476105e-001 3.776925e-001 -2.949995e+000 2.089515e+000 4.053125e-001 -1.179183e+000 2.549423e+000 -1.074510e+000 -6.832138e-001 3.452553e-001 6.914791e-001 6.034960e-001 6.880763e-001 7.103921e-002 -1.287937e-001 -4.367763e-001 2.688260e-001 1.479281e-002 4.229957e-001 6.151118e-001 -1.813556e-001
<VARIANCE> 39
 7.330704e+001 1.319237e+001 1.323508e+001 2.728966e+001 4.394924e+001 2.953304e+001 5.711359e+001 9.036848e+001 3.910382e+001 2.179832e+001 1.649751e+001 2.405064e+001 1.851857e+001 1.342324e+000 3.815843e-001 1.511648e+000 1.963597e+000 4.447998e+000 2.182997e+000 2.829220e+000 8.776992e+000 5.238624e+000 3.576443e+000 3.430054e+000 1.980283e+000 2.121071e+000 8.801519e-001 2.052955e-001 3.946747e-001 3.384368e-001 9.344885e-001 4.060045e-001 7.115000e-001 1.303113e+000 8.654360e-001 3.446784e-001 3.603916e-001 4.060276e-001 5.142750e-001
<GCONST> 1.187456e+002
<STATE> 7
<NUMMIXES> 6
<MIXTURE> 1 1.506143e-001
<MEAN> 39
 7.364282e+000 3.268254e+000 1.785749e+000 5.636983e+000 -1.552405e+001 -7.417687e+000 6.446044e+000 -6.647788e+000 4.486582e+000 -1.567100e-001 -5.208460e+000 -5.426786e+000 -4.673789e+000 -3.324422e+000 6.471772e-001 1.821099e+000 2.122178e+000 8.685472e-001 5.328333e-001 -2.255666e-001 -1.378896e+000 1.270287e+000 1.802248e+000 -7.534976e-002 2.424747e+000 -3.454488e-001 -9.065155e-001 -2.304975e-001 5.254742e-002 -1.405036e-001 1.202612e+000 3.536983e-001 -6.801243e-001 9.760598e-001 -3.834340e-001 3.087528e-001 7.279648e-001 -2.532613e-002 3.107532e-001
<VARIANCE> 39
 1.125269e+001 1.747003e+001 1.719275e+001 1.063790e+001 1.828100e+001 3.102241e+001 3.305412e+001 2.856403e+001 2.041608e+001 2.157295e+001 1.865010e+001 1.412206e+001 8.860868e+000 5.234236e-001 5.804526e-001 1.086061e+000 1.133671e+000 1.276546e+000 1.861350e+000 2.415158e+000 2.482406e+000 3.850916e+000 3.107872e+000 1.467517e+000 2.777513e+000 1.506552e+000 1.314511e-001 2.648119e-001 1.536399e-001 2.245383e-001 3.253756e-001 3.900246e-001 4.469276e-001 9.986943e-001 2.446940e-001 3.774755e-001 2.185511e-001 4.191919e-001 1.632030e-001
<GCONST> 9.899082e+001
<MIXTURE> 2 1.926075e-001
<MEAN> 39
 1.191182e+001 3.977888e-001 6.211125e+000 3.023802e+000 -2.127892e+001 -5.888642e+000 -3.653403e+000 -1.428907e+001 7.399171e+000 -3.348556e+000 -4.398725e+000 -1.319851e-001 -5.941206e+000 -3.552248e+000 1.577147e+000 1.900325e+000 2.530999e+000 1.600873e+000 1.101661e+000 -2.422688e-001 -2.720876e+000 1.731772e+000 -1.457205e+000 -3.403722e-002 1.777098e+000 -1.925659e+000 -1.392073e+000 3.666146e-001 -1.413450e-001 -3.092915e-002 1.973997e+000 1.416706e-001 3.170148e-001 1.714201e+000 -8.510863e-001 6.499324e-001 4.114497e-001 -6.679567e-001 5.612499e-001
<VARIANCE> 39
 1.537137e+001 1.328537e+001 9.629197e+000 1.321034e+001 7.754564e+000 1.401126e+001 1.671880e+001 1.620064e+001 2.357264e+001 1.220840e+001 1.732119e+001 1.004280e+001 1.214504e+001 7.488371e-001 7.275085e-001 7.679733e-001 7.608232e-001 1.739920e+000 1.951934e+000 1.341443e+000 1.756154e+000 1.258121e+000 1.550826e+000 2.138446e+000 2.856677e+000 1.859895e+000 2.319707e-001 3.049819e-001 3.150684e-001 2.296873e-001 4.924734e-001 3.140361e-001 3.484826e-001 5.146997e-001 5.871509e-001 2.912938e-001 4.080840e-001 2.152574e-001 4.235396e-001
<GCONST> 9.556654e+001
<MIXTURE> 3 1.346131e-001
<MEAN> 39
 1.194196e+001 1.931998e+000 -9.064887e-001 5.808745e+000 -1.803524e+001 -1.475855e+001 3.507720e+000 -9.573577e+000 -4.089119e+000 4.152394e+000 -8.518020e+000 -1.149195e+000 -6.433605e+000 -2.795968e+000 1.141585e+000 1.825021e+000 2.490798e+000 2.059381e+000 -6.199086e-001 1.462387e+000 -2.573982e+000 -6.114524e-001 1.153412e+000 -7.423450e-001 5.800170e-001 1.230572e+000 -1.367829e+000 9.842118e-002 4.826671e-001 -2.450901e-001 1.733654e+000 1.106707e+000 -6.101773e-001 1.365811e+000 5.850132e-001 -6.231809e-001 1.338494e+000 -5.145255e-001 4.547337e-001
<VARIANCE> 39
 2.986105e+001 1.505347e+001 2.199121e+001 2.665343e+001 3.512816e+001 3.622763e+001 2.578820e+001 2.142381e+001 2.453514e+001 1.605868e+001 4.575340e+001 2.152765e+001 1.642410e+001 1.630627e+000 7.833552e-001 1.407981e+000 8.562272e-001 2.603365e+000 2.113199e+000 2.381506e+000 4.347687e+000 4.947634e+000 2.704536e+000 1.557116e+000 4.378097e+000 1.839618e+000 1.756912e-001 3.659518e-001 5.765877e-001 5.148522e-001 4.699647e-001 7.722684e-001 6.501817e-001 6.380691e-001 4.679671e-001 3.728944e-001 3.876207e-001 3.628363e-001 6.696880e-001
<GCONST> 1.129264e+002
<MIXTURE> 4 2.390147e-001
<MEAN> 39
 1.330340e+001 -7.092599e-001 3.957032e+000 8.509264e-001 -2.135524e+001 -3.518613e+000 -1.657761e+000 -8.526912e+000 7.888393e+000 -3.444384e+000 -3.498371e+000 -1.757151e+000 -3.128943e+000 -1.832352e+000 5.855653e-001 1.454772e+000 2.026100e+000 -4.340515e-001 7.698656e-001 -1.564174e+000 -3.502993e+000 2.007138e+000 -1.926161e+000 6.016939e-001 1.838320e+000 -1.811810e+000 -1.280886e+000 6.490978e-001 3.214846e-001 4.917776e-001 1.334673e+000 -2.174051e-001 1.528527e-002 4.384024e-001 -6.960841e-001 3.278125e-001 1.301086e-001 -5.301847e-001 8.150000e-002
<VARIANCE> 39
 1.283307e+001 9.819572e+000 8.106761e+000 9.714227e+000 1.554842e+001 2.111384e+001 1.693356e+001 1.441649e+001 1.863156e+001 2.079919e+001 1.535962e+001 9.537353e+000 1.164421e+001 6.618348e-001 6.261361e-001 8.253260e-001 6.921470e-001 1.180494e+000 1.008131e+000 2.121484e+000 2.191222e+000 1.488886e+000 1.222230e+000 2.310044e+000 1.704116e+000 1.955678e+000 1.698864e-001 2.055876e-001 1.623106e-001 1.487471e-001 5.321280e-001 2.230372e-001 2.877838e-001 3.426679e-001 3.202465e-001 5.134440e-001 2.087864e-001 2.645634e-001 1.816087e-001
<GCONST> 9.054911e+001
<MIXTURE> 5 1.554424e-001
<MEAN> 39
 1.071238e+001 1.669285e-001 4.955745e+000 5.278404e+000 -1.684287e+001 -1.206872e+001 4.531873e+000 -1.486565e+001 5.192383e+000 4.732095e+000 -5.898489e+000 1.374966e+000 -4.251880e+000 -3.264323e+000 1.456215e+000 1.902091e+000 2.646116e+000 1.170893e+000 7.209134e-002 4.534630e-001 -4.610500e+000 6.745679e-001 -4.760704e-001 -2.105677e+000 1.655196e+000 -1.566019e-001 -1.170765e+000 4.964461e-001 9.386566e-002 1.112279e-002 1.352183e+000 7.962056e-001 -6.620803e-001 1.526147e+000 -1.087749e+000 -1.026668e+000 4.127702e-001 -1.054589e+000 7.010521e-002
<VARIANCE> 39
 1.456976e+001 8.573988e+000 2.015854e+001 7.237082e+000 1.098889e+001 1.113857e+001 1.523420e+001 4.201240e+001 4.405853e+001 3.304597e+001 2.251199e+001 1.491497e+001 1.587085e+001 1.100613e+000 9.474223e-001 9.157183e-001 1.104004e+000 1.214366e+000 2.164763e+000 2.328212e+000 2.173097e+000 1.819241e+000 2.192630e+000 2.563837e+000 1.713712e+000 7.614561e-001 2.362098e-001 9.882367e-002 3.301075e-001 1.641683e-001 2.628329e-001 2.600042e-001 2.472036e-001 7.109755e-001 1.155101e+000 4.745513e-001 7.109633e-001 2.024168e-001 1.909790e-001
<GCONST> 9.856261e+001
<MIXTURE> 6 1.277077e-001
<MEAN> 39
 1.059108e+001 4.967253e-001 1.389577e+000 5.056367e+000 -2.071211e+001 -8.753451e+000 4.916815e+000 -1.222568e+001 5.566887e+000 -3.883731e-001 -6.812090e+000 -3.378448e+000 -5.472643e+000 -3.268330e+000 1.448298e+000 2.045061e+000 2.947176e+000 6.858137e-001 5.840707e-001 -5.298740e-002 -4.081628e+000 1.627639e+000 -1.965861e-001 -1.067630e+000 3.232444e+000 -6.779743e-001 -1.501104e+000 4.608667e-001 3.780519e-001 -3.297944e-001 2.109899e+000 3.413981e-001 -8.350959e-001 1.714540e+000 -9.785292e-001 2.856164e-001 1.117627e+000 -6.135234e-001 5.902736e-001
<VARIANCE> 39
 7.802723e+000 1.088542e+001 1.166419e+001 7.152809e+000 4.883527e+000 1.156885e+001 1.107651e+001 2.310056e+001 1.389876e+001 1.138580e+001 1.649950e+001 2.501493e+001 4.120486e+000 8.780422e-001 9.301049e-001 9.947668e-001 7.077928e-001 2.226919e+000 1.835341e+000 1.274237e+000 1.644944e+000 3.303240e+000 1.692840e+000 1.214593e+000 2.741302e+000 9.193043e-001 1.241095e-001 1.368267e-001 1.649340e-001 1.371908e-001 1.785001e-001 1.676447e-001 1.578982e-001 5.484589e-001 3.639573e-001 3.264264e-001 4.931440e-001 4.968681e-001 1.903054e-001
<GCONST> 8.804396e+001
<STATE> 8
<NUMMIXES> 6
<MIXTURE> 1 9.975153e-002
<MEAN> 39
 4.933213e+000 4.446620e+000 5.259579e+000 1.191389e+001 -1.784301e+001 -8.500828e+000 5.158483e+000 -1.811415e+001 3.181748e+000 3.898657e+000 -7.732862e+000 2.852472e+000 -4.468893e+000 -5.321488e+000 7.330700e-001 1.499497e+000 1.276727e+000 4.954027e+000 1.838366e+000 1.980874e-001 1.385548e+000 8.977499e-001 1.529958e+000 1.326123e+000 1.523540e+000 1.007089e+000 -5.868099e-001 -6.982515e-001 -7.419114e-001 -1.227429e+000 1.707996e+000 6.580521e-001 -3.327351e-001 2.704593e+000 -2.397850e-001 -9.512938e-002 1.152525e+000 -9.919122e-001 4.563931e-001
<VARIANCE> 39
 8.144833e+000 1.674619e+001 1.437742e+001 1.278377e+001 1.017165e+001 1.205858e+001 9.393353e+000 2.112207e+001 1.878510e+001 1.689883e+001 2.651192e+001 1.758465e+001 6.031382e+000 7.278715e-001 2.278882e+000 1.006355e+000 1.486396e+000 2.879227e+000 1.694503e+000 1.329822e+000 4.666426e+000 2.787452e+000 4.361400e+000 4.688023e+000 3.201631e+000 1.479254e+000 1.070299e-001 2.346799e-001 1.544018e-001 2.429007e-001 3.105882e-001 3.867382e-001 9.182666e-002 4.673842e-001 9.468113e-001 1.467442e-001 7.049832e-001 2.951932e-001 1.576590e-001
<GCONST> 9.789944e+001
<MIXTURE> 2 2.450608e-001
<MEAN> 39
 4.564169e+000 3.014536e+000 8.839826e+000 7.484111e+000 -1.802549e+001 -1.801276e+000 -6.534768e+000 -1.211277e+001 8.654599e+000 -3.946406e+000 -1.919846e+000 3.844457e-001 -7.806525e+000 -4.508040e+000 1.198069e+000 1.573514e+000 1.807108e+000 4.175367e+000 7.600124e-001 -2.674075e-001 4.961912e-001 -1.712253e-001 3.069882e-001 8.641703e-001 4.970300e-001 -5.733759e-001 -4.323403e-001 -5.351067e-001 -6.572959e-001 -7.125033e-001 1.530666e+000 -1.568501e-001 1.075150e+000 1.686419e+000 -7.235758e-001 1.092764e+000 -1.035133e-001 -3.946621e-001 9.468111e-001
<VARIANCE> 39
 3.010757e+001 6.616971e+000 1.193057e+001 1.102177e+001 2.614983e+001 2.660684e+001 3.120641e+001 3.689735e+001 3.522602e+001 4.075881e+001 2.676957e+001 1.662215e+001 2.283252e+001 2.377672e+000 2.172822e+000 1.499579e+000 1.760151e+000 4.316727e+000 2.329572e+000 1.865158e+000 2.342598e+000 2.720285e+000 4.073133e+000 1.812526e+000 3.809221e+000 1.914874e+000 3.399998e-001 2.511797e-001 5.500147e-001 3.042872e-001 4.954695e-001 5.973547e-001 8.595898e-001 1.080470e+000 8.755763e-001 1.008140e+000 6.517351e-001 3.560039e-001 6.596022e-001
<GCONST> 1.157813e+002
<MIXTURE> 3 1.465914e-001
<MEAN> 39
 4.191712e+000 5.013172e+000 1.943510e+000 8.570677e+000 -1.181126e+001 -1.482410e+001 8.810279e+000 -7.547030e+000 8.599521e-001 2.759444e+000 -5.191141e+000 -5.780436e+000 -5.231122e+000 -4.080230e+000 2.163022e-001 1.655167e+000 1.495906e+000 3.241506e+000 6.501521e-001 -9.400141e-001 8.335974e-001 8.874335e-001 1.236872e+000 1.481957e+000 7.956473e-001 8.731338e-001 -6.416037e-001 -5.919644e-001 -1.236473e-002 -8.339407e-001 1.036988e+000 1.407362e+000 -6.001590e-001 1.441786e+000 2.712000e-001 -6.774260e-002 7.817037e-001 1.729936e-001 3.047721e-001
<VARIANCE> 39
 1.913874e+001 1.729700e+001 1.571171e+001 1.381928e+001 4.706684e+001 9.656506e+001 2.344800e+001 3.171667e+001 7.559080e+001 1.805756e+001 4.365045e+001 2.274379e+001 8.045473e+000 1.668590e+000 2.605843e+000 2.102385e+000 2.151342e+000 3.333696e+000 3.760936e+000 2.213620e+000 4.290600e+000 4.726737e+000 3.255645e+000 2.554402e+000 4.146421e+000 2.194829e+000 2.567627e-001 1.705972e-001 2.734235e-001 3.301197e-001 7.478970e-001 1.057253e+000 5.551244e-001 1.007932e+000 1.869813e+000 5.644886e-001 3.636202e-001 3.298306e-001 4.594764e-001
<GCONST> 1.185433e+002
<MIXTURE> 4 1.928937e-001
<MEAN> 39
 4.989677e+000 3.078972e+000 7.616488e+000 9.383099e+000 -1.922833e+001 -4.999713e+000 1.720361e-002 -1.998485e+001 1.069899e+001 -7.768682e+000 -5.071927e+000 1.250784e+000 -4.683583e+000 -5.272015e+000 2.781198e+000 1.910800e+000 2.119118e+000 3.292248e+000 5.962083e-001 -1.571300e+000 -9.861677e-001 -1.418286e+000 -6.314063e-001 -6.042791e-001 9.177607e-002 -8.193043e-001 -3.467179e-001 -3.344996e-001 -8.870754e-001 -9.035833e-001 1.711462e+000 1.795234e-001 1.864273e-001 2.659086e+000 -1.421603e+000 1.166398e+000 4.284638e-001 -8.444931e-001 4.073420e-001
<VARIANCE> 39
 2.598656e+001 1.611023e+001 1.480080e+001 1.989280e+001 2.992258e+001 2.366074e+001 3.103396e+001 1.738669e+001 2.084451e+001 3.114818e+001 3.987371e+001 1.442604e+001 1.562326e+001 1.879930e+000 1.355367e+000 1.769794e+000 1.394249e+000 3.467587e+000 2.229886e+000 2.714518e+000 4.250635e+000 3.907698e+000 6.069536e+000 2.254465e+000 4.429481e+000 2.337503e+000 3.749993e-001 4.168245e-001 7.768679e-001 4.037062e-001 3.798010e-001 4.693733e-001 8.064851e-001 4.973764e-001 2.925416e-001 8.649973e-001 1.036412e+000 3.429235e-001 2.255722e-001
<GCONST> 1.149268e+002
<MIXTURE> 5 1.509790e-001
<MEAN> 39
 3.332051e+000 3.630717e+000 4.887955e+000 8.221012e+000 -1.192437e+001 -8.991357e+000 5.906749e+000 -9.736685e+000 -1.324184e+000 7.462852e+000 -7.640171e+000 -4.886371e-001 -3.197371e+000 -4.194638e+000 7.226011e-001 1.924764e+000 1.446168e+000 3.244215e+000 1.830905e+000 -1.390036e+000 -1.156037e+000 -1.447082e-001 -7.802942e-001 5.897187e-002 4.581866e-001 1.167150e+000 -2.076899e-001 -5.103629e-001 -6.923394e-001 -7.632708e-001 8.257182e-001 6.432254e-001 -8.999555e-001 1.421017e+000 1.049273e-001 -1.123368e+000 8.429911e-001 -5.900822e-001 -3.527744e-002
<VARIANCE> 39
 2.844183e+001 6.914852e+000 3.587355e+001 1.540469e+001 2.624784e+001 4.731811e+001 3.715859e+001 6.146428e+001 4.433279e+001 3.801652e+001 2.017705e+001 2.298432e+001 3.002187e+001 1.975522e+000 1.073688e+000 3.048644e+000 1.218812e+000 3.181466e+000 1.667680e+000 4.416569e+000 3.191764e+000 3.285718e+000 6.556199e+000 4.726913e+000 3.088420e+000 1.739802e+000 3.054216e-001 1.377004e-001 4.818283e-001 2.058524e-001 4.534452e-001 6.546598e-001 5.735725e-001 1.195833e+000 7.013876e-001 6.339084e-001 3.835083e-001 9.019579e-001 4.667584e-001
<GCONST> 1.180814e+002
<MIXTURE> 6 1.647237e-001
<MEAN> 39
 8.078879e+000 2.770414e+000 4.934883e+000 8.261384e+000 -1.813614e+001 -8.695654e+000 3.292649e+000 -1.777132e+001 5.283287e+000 -1.671541e+000 -7.386425e+000 -2.358931e-001 -5.673307e+000 -5.755520e+000 1.970675e+000 2.167375e+000 2.040823e+000 4.347562e+000 7.531140e-001 -5.378568e-001 -2.309659e-001 1.209183e+000 6.116114e-001 1.073908e+000 1.212555e+000 2.621974e-002 -9.287658e-001 -3.343199e-001 -5.629141e-001 -1.133086e+000 1.543078e+000 6.282367e-001 -5.263746e-001 2.895623e+000 -6.005198e-001 7.013486e-001 1.222814e+000 -6.473078e-001 6.871184e-001
<VARIANCE> 39
 1.139432e+001 1.509871e+001 1.852728e+001 1.021858e+001 1.370504e+001 1.282252e+001 2.090018e+001 1.559497e+001 2.888535e+001 1.145368e+001 2.319241e+001 2.027205e+001 5.914970e+000 1.240364e+000 1.826361e+000 1.329934e+000 1.584375e+000 1.104146e+000 1.814241e+000 2.333116e+000 2.281543e+000 5.500766e+000 1.675290e+000 1.510412e+000 2.217180e+000 2.321142e+000 1.352035e-001 1.832064e-001 3.282582e-001 2.425086e-001 4.135870e-001 1.498402e-001 5.044399e-001 2.363645e-001 4.104044e-001 2.277835e-001 3.690698e-001 5.363199e-001 2.697515e-001
<GCONST> 9.852108e+001
<STATE> 9
<NUMMIXES> 6
<MIXTURE> 1 3.522423e-002
<MEAN> 39
 -2.221150e+000 3.415321e+000 8.241600e+000 6.806500e+000 -3.302075e+000 -8.137301e+000 1.198132e+000 -5.774912e+000 2.418907e+000 6.020965e+000 -5.492842e+000 -6.747702e-001 -6.909427e+000 -4.157808e+000 -1.803537e+000 6.109988e-001 5.302022e-001 6.328713e+000 3.437644e+000 2.425396e+000 5.141735e+000 2.619993e-001 3.450618e+000 1.764115e+000 1.619290e+000 1.219440e+000 3.733252e-001 -1.199207e+000 -5.970062e-001 -6.153041e-001 -9.727882e-002 7.596228e-001 8.466374e-001 8.939296e-001 2.273339e-001 5.187612e-002 6.176554e-001 3.999479e-001 9.982899e-001
<VARIANCE> 39
 4.439401e+001 6.048808e+000 2.381580e+001 4.299649e+001 1.132889e+001 1.236111e+001 5.190387e+001 1.322095e+002 1.150417e+002 7.455568e+001 1.205976e+001 2.251816e+001 6.561133e+000 1.746703e+000 4.242605e-001 5.186052e-001 4.187976e+000 4.945241e-001 1.794829e+000 4.343640e+000 4.200499e+000 8.550268e-002 3.470018e+000 3.992360e+000 1.119551e+000 1.969889e+000 6.355552e-002 1.145071e-001 2.241557e-001 9.184436e-001 3.278731e-001 6.006518e-002 4.889631e-001 1.508532e+000 2.488014e+000 1.236603e+000 2.015851e-001 8.952392e-001 6.824696e-002
<GCONST> 1.047322e+002
<MIXTURE> 2 1.876508e-001
<MEAN> 39
 -4.306296e+000 8.859609e+000 1.200429e+001 7.991080e+000 -9.783821e+000 -2.714675e+000 -7.194748e+000 -1.092458e+001 7.657964e+000 -6.646171e+000 -1.913922e+000 -1.476845e+000 -7.890913e+000 -4.905924e+000 3.785275e-002 -3.661466e-001 -3.087633e-001 6.522106e+000 3.880744e-003 1.693056e+000 3.976274e+000 -1.634950e+000 3.438709e+000 6.154488e-001 -2.140879e-001 7.478753e-001 1.123852e+000 -1.602417e+000 -1.557784e+000 -7.641250e-001 1.045749e-001 1.921156e-001 1.269763e+000 1.325575e+000 -2.779249e-001 9.430704e-001 7.897741e-002 2.638808e-001 9.506730e-001
<VARIANCE> 39
 3.099916e+001 1.523781e+001 8.031447e+000 1.470508e+001 4.243919e+001 2.841780e+001 2.100888e+001 2.429237e+001 1.715734e+001 3.943218e+001 2.237211e+001 3.561005e+001 2.986782e+001 1.645997e+000 2.227900e+000 2.187165e+000 3.825535e+000 1.817093e+000 3.095432e+000 5.570782e+000 3.768462e+000 3.652964e+000 3.779598e+000 4.935854e+000 1.459820e+000 1.558535e+000 5.347509e-001 3.255511e-001 5.136333e-001 1.774397e-001 7.471988e-001 5.329465e-001 4.225706e-001 3.338301e-001 3.704894e-001 6.391049e-001 5.539764e-001 5.309784e-001 5.299506e-001
<GCONST> 1.154477e+002
<MIXTURE> 3 2.473789e-001
<MEAN> 39
 -2.310105e+000 6.127490e+000 1.014864e+001 1.133956e+001 -1.057466e+001 -3.273485e+000 2.924353e+000 -1.569920e+001 7.547122e+000 -3.526957e-002 -6.588990e+000 1.794636e+000 -5.563901e+000 -6.362105e+000 7.389449e-001 1.219445e+000 -1.018042e-001 6.132736e+000 1.857926e+000 -7.310289e-001 4.062536e+000 -1.738106e-001 1.200766e+000 2.108156e+000 -1.921369e-001 7.484383e-001 5.539857e-001 -1.156919e+000 -1.426397e+000 -1.296050e+000 4.751966e-001 1.598063e-001 3.417367e-002 2.250091e+000 -4.816655e-001 5.262312e-001 8.618144e-001 -5.074752e-001 7.581354e-001
<VARIANCE> 39
 9.089665e+000 5.229699e+000 1.600249e+001 9.779881e+000 2.688284e+001 2.865123e+001 1.875409e+001 2.658023e+001 3.864436e+001 2.950342e+001 2.691654e+001 3.235815e+001 1.802191e+001 1.158407e+000 1.308554e+000 9.156975e-001 2.043990e+000 1.693177e+000 2.571099e+000 4.036689e+000 2.444956e+000 3.906353e+000 2.642935e+000 2.722544e+000 1.982278e+000 3.663438e+000 3.037604e-001 1.625150e-001 5.530629e-001 1.697608e-001 5.053329e-001 5.934378e-001 3.019416e-001 3.867005e-001 8.553833e-001 6.456093e-001 5.562717e-001 6.788856e-001 4.336382e-001
<GCONST> 1.091428e+002
<MIXTURE> 4 2.418563e-001
<MEAN> 39
 -2.176040e+000 5.358365e+000 4.591897e+000 1.213894e+001 -6.628304e+000 -1.025286e+001 4.269463e+000 -9.547151e+000 -3.880670e-001 2.655102e+000 -3.964670e+000 -2.243516e+000 -1.324569e+000 -4.829485e+000 -4.984465e-001 9.334442e-001 -7.886153e-001 4.703038e+000 3.228415e+000 -1.696441e+000 2.830958e+000 3.471916e-001 8.605230e-002 1.863862e+000 4.985598e-001 1.163136e+000 6.518114e-001 -9.111132e-001 -1.058940e+000 -1.239576e+000 6.771818e-002 7.101471e-001 2.774606e-002 1.435116e+000 2.774028e-001 -5.929545e-002 2.777404e-001 9.198481e-003 -1.196769e-001
<VARIANCE> 39
 1.688666e+001 1.680184e+001 2.168394e+001 1.452022e+001 1.910215e+001 4.074696e+001 4.101922e+001 3.842689e+001 3.805639e+001 2.707481e+001 2.897702e+001 3.424241e+001 2.026028e+001 2.851631e+000 3.134223e+000 3.965136e+000 1.407252e+000 3.702445e+000 3.937870e+000 2.987477e+000 4.273313e+000 5.491717e+000 4.042043e+000 2.701686e+000 2.789302e+000 2.409573e+000 4.593696e-001 5.230951e-001 5.997891e-001 2.987277e-001 5.247177e-001 6.780052e-001 7.059516e-001 5.661650e-001 9.168336e-001 5.252991e-001 3.500274e-001 7.417884e-001 5.149262e-001
<GCONST> 1.212400e+002
<MIXTURE> 5 1.891224e-001
<MEAN> 39
 -5.038575e+000 6.631112e+000 1.284497e+001 1.264281e+001 -1.082894e+001 -3.098850e+000 -2.163056e+000 -1.785387e+001 4.350675e+000 -5.333736e+000 -8.637607e+000 1.860343e-001 -6.382902e+000 -3.414998e+000 5.190699e-001 -4.845472e-001 3.194218e-001 4.422201e+000 1.880722e+000 -1.081550e+000 2.237922e+000 -2.414630e+000 -9.263665e-001 4.406972e-001 -1.032806e+000 2.673740e-001 1.376797e+000 -1.440327e+000 -1.907129e+000 -1.318066e+000 2.653694e-001 -2.008786e-001 7.717765e-001 1.989399e+000 -1.376332e-001 1.160228e+000 6.822641e-001 -2.200113e-001 5.910828e-001
<VARIANCE> 39
 1.481337e+001 1.921640e+001 1.638619e+001 9.291537e+000 3.033711e+001 2.982093e+001 4.602826e+001 5.490212e+001 2.311078e+001 3.005374e+001 4.034222e+001 4.291880e+001 1.609145e+001 3.012190e+000 2.582355e+000 5.307656e+000 1.098367e+000 4.063805e+000 2.303269e+000 3.581171e+000 4.927921e+000 4.571313e+000 5.368623e+000 2.601177e+000 2.388295e+000 1.111747e+000 2.958151e-001 2.546767e-001 5.393951e-001 2.445726e-001 7.001380e-001 4.456426e-001 1.073178e+000 1.242280e+000 5.604316e-001 8.889511e-001 9.695089e-001 8.879924e-001 3.153190e-001
<GCONST> 1.203398e+002
<MIXTURE> 6 9.876786e-002
<MEAN> 39
 -3.312261e+000 4.077334e+000 5.026516e+000 8.775249e+000 -5.269362e+000 -3.996444e+000 4.584939e+000 -6.239980e+000 6.693482e+000 9.040696e+000 -6.619266e-001 -2.531970e-001 -3.964136e+000 -5.295654e+000 -1.029484e+000 5.248303e-001 -9.288993e-001 5.570395e+000 2.059848e+000 -4.264080e-001 5.168321e+000 1.668619e+000 2.628510e+000 3.109954e+000 9.804970e-001 6.719902e-001 5.751536e-001 -5.162184e-001 -7.823016e-001 -9.066230e-001 -5.752819e-002 4.127919e-001 -1.859550e-001 7.425124e-001 -4.723107e-001 -9.955408e-001 -2.538025e-002 -3.590200e-001 3.856713e-001
<VARIANCE> 39
 2.128448e+001 7.274071e+000 9.402337e+000 9.714131e+000 4.473038e+001 1.069622e+001 2.371017e+001 2.088263e+001 4.383649e+001 2.564892e+001 2.089165e+001 1.157888e+001 6.974622e+000 2.385186e-001 2.719929e+000 8.666895e-001 2.958568e+000 1.094585e+000 1.981368e+000 1.616304e+000 5.630065e+000 2.127627e+000 1.990370e+000 3.924268e+000 1.752316e+000 7.858347e-001 4.177217e-001 2.877572e-001 4.669482e-001 2.367783e-001 6.326568e-001 2.587080e-001 3.322390e-001 5.553992e-001 1.080473e+000 4.752558e-001 5.903956e-001 4.169937e-001 1.905101e-001
<GCONST> 1.031402e+002
<STATE> 10
<NUMMIXES> 6
<MIXTURE> 1 1.409861e-001
<MEAN> 39
 -1.242552e+001 3.321394e+000 6.492074e+000 1.835318e+000 7.418118e-001 -4.023419e+000 3.236913e-001 3.844355e+000 7.352149e+000 9.168366e+000 5.863022e+000 -1.006057e+000 -4.563374e+000 -3.451423e+000 -1.985704e+000 -8.662638e-001 -1.511010e+000 4.043458e+000 2.821625e+000 9.726844e-001 4.229840e+000 -2.621057e-002 2.179902e+000 1.981130e+000 1.166963e+000 1.992126e+000 1.474214e+000 -5.785962e-001 -6.854892e-001 2.566551e-001 -7.745830e-001 5.281044e-001 7.156144e-001 -6.901524e-001 -1.694634e-001 -9.747403e-001 -7.879727e-001 3.082780e-001 4.939790e-001
<VARIANCE> 39
 5.038491e+000 9.214972e+000 1.075776e+001 1.797893e+001 1.327405e+001 2.021560e+001 3.745960e+001 2.656529e+001 1.546822e+001 1.489320e+001 1.103048e+001 3.348381e+001 2.492417e+001 1.217188e+000 1.163552e+000 1.473462e+000 1.670446e+000 5.693295e+000 4.403850e+000 3.255470e+000 5.826327e+000 5.605041e+000 5.821502e+000 3.110959e+000 2.051040e+000 2.714860e+000 1.640833e-001 2.768861e-001 4.372441e-001 3.958545e-001 5.773874e-001 6.016219e-001 3.789668e-001 4.810844e-001 5.252672e-001 4.468052e-001 3.126027e-001 2.151392e-001 5.518822e-001
<GCONST> 1.092447e+002
<MIXTURE> 2 1.892250e-001
<MEAN> 39
 -7.476489e+000 3.124652e+000 1.002012e+001 1.154204e+001 1.956510e-001 -5.592396e-001 -5.456763e-001 -8.499512e+000 -6.771656e-001 2.002305e+000 -4.362221e+000 -1.722033e+000 -4.733401e+000 -1.695624e+000 -2.812428e+000 -3.052452e+000 -8.004916e-001 4.387712e+000 2.070687e+000 2.281367e+000 4.381885e+000 -1.117855e+000 1.614895e+000 1.663020e+000 5.230055e-001 1.892728e+000 1.549093e+000 -8.144156e-001 -1.243557e+000 -8.912023e-001 -1.248775e+000 -5.578189e-001 4.174863e-001 4.367320e-001 4.616448e-001 5.716358e-002 3.120859e-001 3.671086e-001 3.077925e-001
<VARIANCE> 39
 2.548769e+001 2.397587e+001 3.212307e+001 1.835382e+001 4.673642e+001 2.750865e+001 4.122052e+001 3.601134e+001 2.374277e+001 4.534301e+001 2.195430e+001 3.463305e+001 1.545951e+001 2.681664e+000 1.936808e+000 4.099388e+000 2.324337e+000 4.306918e+000 3.342600e+000 5.882572e+000 6.943699e+000 3.125534e+000 4.966727e+000 5.003688e+000 3.160786e+000 1.904918e+000 3.682666e-001 5.024979e-001 8.182560e-001 4.659501e-001 7.777208e-001 7.903376e-001 6.039074e-001 9.006653e-001 5.885184e-001 1.405350e+000 4.164446e-001 7.255052e-001 5.171165e-001
<GCONST> 1.259203e+002
<MIXTURE> 3 1.382400e-001
<MEAN> 39
 -9.984531e+000 1.321025e+000 6.632607e+000 8.590486e+000 1.226277e+000 -2.341254e+000 1.064928e-001 5.914798e-001 4.830575e+000 2.410381e+000 -2.525704e+000 -2.573051e+000 -1.321554e+000 -3.769400e+000 -1.535257e+000 -7.356682e-001 -1.679957e+000 4.179199e+000 2.533357e+000 3.186091e-001 4.986182e+000 2.104394e+000 1.278074e+000 2.186183e+000 8.008543e-001 2.127480e+000 1.030173e+000 -2.874780e-001 -6.188005e-001 -5.411907e-001 -9.292631e-001 -1.678186e-001 4.721517e-001 -2.072695e-001 -1.351871e-001 1.779189e-001 2.520041e-001 4.207554e-001 9.514094e-002
<VARIANCE> 39
 1.332025e+001 1.616533e+001 1.950331e+001 2.776503e+001 3.845924e+001 5.336536e+001 1.759846e+001 2.695451e+001 2.903112e+001 2.967189e+001 2.461580e+001 3.456154e+001 2.540305e+001 2.597391e+000 1.488605e+000 2.336987e+000 1.266458e+000 3.289694e+000 6.702851e+000 2.495157e+000 2.946963e+000 4.747306e+000 2.181374e+000 1.742560e+000 1.405120e+000 2.480000e+000 4.406534e-001 5.873351e-001 2.461991e-001 5.950347e-001 5.607128e-001 5.867605e-001 2.903127e-001 6.131009e-001 5.403567e-001 4.025185e-001 3.436616e-001 7.302802e-001 6.352808e-001
<GCONST> 1.160674e+002
<MIXTURE> 4 2.481329e-001
<MEAN> 39
 -1.073794e+001 8.579274e+000 1.166174e+001 8.806574e+000 1.685166e+000 -3.369412e+000 -4.097269e+000 -8.142582e+000 -2.125549e+000 -2.381130e+000 -2.359973e+000 -1.854860e+000 -3.034004e+000 -2.016030e+000 -2.661125e+000 -2.976264e+000 -1.638919e+000 4.752861e+000 2.222595e+000 3.645295e-001 5.018939e+000 -9.360448e-001 1.685039e+000 1.162636e+000 3.256857e-001 9.422136e-001 2.467351e+000 -1.655982e+000 -1.950756e+000 -6.967955e-001 -1.528785e+000 -6.258320e-001 8.804463e-001 3.427547e-001 7.170585e-001 5.599551e-001 8.530764e-003 2.478754e-001 1.537500e-001
<VARIANCE> 39
 8.461726e+000 1.026565e+001 6.311245e+000 8.360435e+000 2.339712e+001 1.563778e+001 2.228260e+001 3.205241e+001 2.448304e+001 2.289457e+001 2.159344e+001 2.205761e+001 2.316424e+001 4.812245e+000 2.018107e+000 6.117913e+000 1.534767e+000 3.398215e+000 4.762072e+000 5.039972e+000 3.415090e+000 5.316510e+000 4.100446e+000 3.049290e+000 2.689365e+000 2.098569e+000 3.773480e-001 3.732543e-001 5.204059e-001 3.698337e-001 5.908378e-001 7.117305e-001 5.177757e-001 1.040645e+000 8.179601e-001 6.517640e-001 4.439860e-001 5.160815e-001 5.281249e-001
<GCONST> 1.164548e+002
<MIXTURE> 5 1.325256e-001
<MEAN> 39
 -8.812425e+000 4.995974e+000 7.057750e+000 4.560688e+000 -1.961960e+000 -4.656107e+000 -3.643536e+000 -4.460354e+000 5.889864e+000 4.710173e+000 9.206819e-002 -3.455149e-001 -2.865973e+000 -3.803103e+000 -1.445836e+000 -1.328871e+000 -1.947944e+000 4.543615e+000 2.703378e+000 -1.011936e+000 5.374804e+000 2.545975e-001 1.004707e+000 2.245934e+000 -7.351324e-002 1.041884e+000 2.001559e+000 -9.136794e-001 -1.370310e+000 -3.337710e-001 -7.595420e-001 1.063215e-001 9.805235e-001 3.570122e-001 -4.609574e-001 -5.806850e-001 -4.913343e-001 -1.870040e-001 3.104505e-002
<VARIANCE> 39
 2.435285e+001 1.967333e+001 1.726280e+001 2.245992e+001 1.635287e+001 2.825670e+001 1.267122e+001 2.184623e+001 3.021301e+001 1.189801e+001 1.456014e+001 1.300837e+001 1.873361e+001 2.071310e+000 1.596930e+000 5.388128e+000 1.052021e+000 1.563432e+000 3.081748e+000 5.871974e+000 2.208739e+000 4.110370e+000 5.880967e+000 2.176977e+000 3.819540e+000 1.365020e+000 7.064649e-001 3.801520e-001 4.111778e-001 4.904919e-001 2.402666e-001 4.222599e-001 5.061703e-001 5.109876e-001 7.404688e-001 3.120796e-001 3.847853e-001 2.829888e-001 4.192075e-001
<GCONST> 1.112000e+002
<MIXTURE> 6 1.508900e-001
<MEAN> 39
 -1.172619e+001 4.062712e+000 5.334271e+000 1.990420e+000 -6.206949e-001 -3.467919e+000 1.578148e+000 3.322731e+000 1.050806e+001 9.975972e+000 5.257392e+000 1.734138e+000 -3.633609e+000 -2.507279e+000 -1.716853e+000 -2.104679e+000 -1.788206e+000 3.966701e+000 2.251132e+000 3.167586e-001 4.268229e+000 -1.616115e-001 1.162400e+000 1.797584e+000 9.884816e-001 1.652251e+000 2.672646e+000 -6.119988e-001 -1.453203e+000 3.481014e-001 -1.245593e+000 -2.596916e-001 -1.779899e-001 -1.272085e+000 -1.410538e+000 -1.704160e+000 -1.260489e+000 -1.932440e-001 1.690824e-001
<VARIANCE> 39
 1.936883e+001 6.302051e+000 5.889861e+000 9.083635e+000 1.444514e+001 1.156744e+001 1.577713e+001 1.458891e+001 2.401376e+001 2.838777e+001 2.202382e+001 1.701038e+001 1.297217e+001 3.231965e+000 1.562124e+000 2.748439e+000 2.164152e+000 2.734704e+000 3.900808e+000 1.304268e+000 2.548588e+000 3.641827e+000 3.121296e+000 2.229327e+000 2.080246e+000 3.293911e+000 3.672062e-001 4.192052e-001 2.664892e-001 2.939270e-001 4.467193e-001 4.841382e-001 6.863824e-001 4.369813e-001 6.751580e-001 6.077352e-001 5.804108e-001 4.287439e-001 4.489567e-001
<GCONST> 1.079237e+002
<STATE> 11
<NUMMIXES> 6
<MIXTURE> 1 1.175307e-001
<MEAN> 39
 -1.414345e+001 -6.402336e-001 3.794818e+000 3.952655e+000 5.563113e+000 3.857779e+000 3.361360e+000 5.208035e+000 7.293885e+000 3.832577e+000 1.576936e+000 5.069794e+000 2.312479e+000 -1.239617e+000 -1.252398e+000 -9.372475e-001 -8.351552e-001 2.449375e+000 1.794704e+000 1.495276e+000 2.571867e+000 9.206665e-001 1.378185e+000 1.782415e+000 1.182246e+000 2.225337e+000 1.398854e+000 4.167720e-001 -3.733944e-001 3.395790e-001 -1.563648e+000 -9.162295e-001 -6.938470e-002 -1.511589e+000 -3.995402e-001 -1.596125e-001 -2.006910e-001 -3.151885e-001 -5.151837e-001
<VARIANCE> 39
 8.461897e+000 5.725196e+000 1.087316e+001 1.098782e+001 1.448208e+001 1.420161e+001 1.240386e+001 1.389493e+001 1.601443e+001 1.387402e+001 1.049944e+001 2.773529e+001 1.326800e+001 1.257962e+000 1.183243e+000 7.365168e-001 1.866229e+000 2.913303e+000 2.257065e+000 3.739938e+000 4.862354e+000 1.892314e+000 4.280557e+000 3.925597e+000 9.420491e-001 9.855067e-001 3.089282e-001 8.551019e-002 3.760991e-001 1.127132e-001 3.789075e-001 3.515472e-001 2.782918e-001 3.420060e-001 4.681531e-001 5.426356e-001 3.867972e-001 4.985736e-001 3.653609e-001
<GCONST> 9.817886e+001
<MIXTURE> 2 2.225748e-001
<MEAN> 39
 -7.463802e+000 -9.761694e-001 2.098024e+000 7.455806e+000 4.038394e+000 9.960784e-001 8.749619e-001 -2.709088e+000 -4.240780e-001 9.578122e-001 -2.830071e+000 1.766456e-001 -1.839426e+000 1.959310e+000 -3.337754e+000 -4.883796e+000 -1.759937e+000 1.109278e+000 3.159965e-001 1.794285e+000 3.707769e+000 -1.314833e-001 1.205799e+000 7.571724e-001 8.214022e-001 1.373067e+000 1.387886e+000 -4.264356e-001 1.664572e-001 -3.040981e-001 -1.511015e+000 -8.523001e-001 3.648069e-001 -5.547616e-001 4.364895e-001 1.320482e-001 -4.002915e-002 -9.117465e-002 5.260634e-002
<VARIANCE> 39
 3.512621e+001 3.552407e+001 6.141204e+001 3.133340e+001 3.663286e+001 2.510846e+001 3.268655e+001 2.320392e+001 3.102353e+001 3.664621e+001 2.834780e+001 1.894153e+001 1.487552e+001 3.552591e+000 2.686610e+000 3.525957e+000 1.855891e+000 3.958665e+000 3.118331e+000 4.129432e+000 4.511390e+000 3.104611e+000 4.771144e+000 3.629972e+000 3.341528e+000 2.650089e+000 4.615106e-001 6.762807e-001 1.599363e+000 3.976061e-001 5.742567e-001 6.599653e-001 8.142184e-001 7.545599e-001 7.440813e-001 1.166680e+000 4.770040e-001 5.365812e-001 5.362089e-001
<GCONST> 1.263820e+002
<MIXTURE> 3 9.795170e-002
<MEAN> 39
 -1.023776e+001 -7.403019e+000 4.994965e+000 9.613084e+000 5.840482e+000 2.698642e+000 1.116938e+001 4.826354e+000 2.872281e+000 9.765865e+000 7.683902e-001 3.867400e+000 5.467197e-001 -3.946970e-001 -1.906192e+000 -1.320051e+000 -1.197664e+000 2.110366e+000 8.846706e-001 1.364860e+000 1.598316e+000 -4.131196e-001 3.899754e-001 7.813327e-001 6.492788e-001 1.582822e+000 1.145006e+000 7.832508e-001 -2.427481e-001 -6.629105e-001 -1.384113e+000 -1.035796e+000 -7.623211e-001 -8.582974e-001 2.483420e-001 -9.483660e-001 -2.037742e-001 -7.081898e-001 -3.104379e-001
<VARIANCE> 39
 1.888130e+001 9.447329e+000 5.955137e+000 3.044345e+001 2.495633e+001 2.568034e+001 2.704840e+001 3.807974e+001 4.554404e+001 1.703672e+001 2.352820e+001 1.060902e+001 1.184268e+001 8.998672e-001 4.140744e+000 3.340501e+000 3.290106e+000 2.666068e+000 4.293859e+000 4.342227e+000 3.331118e+000 3.498538e+000 2.767768e+000 1.453691e+000 2.375931e+000 1.171348e+000 3.011602e-001 3.070175e-001 2.924685e-001 3.711637e-001 3.769534e-001 9.354966e-001 4.978066e-001 1.527317e+000 1.021576e+000 4.669141e-001 4.034909e-001 4.368898e-001 2.742804e-001
<GCONST> 1.129096e+002
<MIXTURE> 4 1.879070e-001
<MEAN> 39
 -1.228204e+001 9.536676e-001 3.229363e+000 4.383574e+000 5.054012e+000 2.167044e+000 1.840492e+000 2.611633e+000 3.595253e+000 3.150676e+000 2.578005e+000 -2.391497e-002 -2.766170e-001 2.454744e+000 -2.784138e+000 -5.969271e+000 -1.428154e+000 1.305374e+000 1.668312e-001 5.682980e-001 3.233500e+000 -6.564114e-001 -2.197398e-001 5.942771e-001 4.867832e-001 8.591697e-001 2.249454e+000 -4.717279e-001 -6.893480e-002 1.421881e-001 -1.782716e+000 -1.415997e+000 2.840525e-001 -1.357214e+000 -4.137112e-001 -2.042407e-001 -8.751636e-001 -1.397197e-001 -2.700237e-001
<VARIANCE> 39
 1.880027e+001 9.175785e+000 3.300545e+001 5.301250e+000 1.447490e+001 2.461458e+001 1.115037e+001 2.855438e+001 2.054108e+001 1.955288e+001 1.994139e+001 1.750035e+001 1.569556e+001 3.138206e+000 1.989202e+000 1.980621e+000 2.168839e+000 2.893435e+000 2.584566e+000 4.579638e+000 4.398966e+000 5.971152e+000 5.207533e+000 3.705237e+000 1.374098e+000 1.739988e+000 4.911301e-001 2.573803e-001 1.168161e+000 2.353759e-001 5.388452e-001 8.274347e-001 5.770419e-001 7.176139e-001 3.801070e-001 4.935691e-001 4.243224e-001 3.136522e-001 3.918347e-001
<GCONST> 1.124818e+002
<MIXTURE> 5 2.453888e-001
<MEAN> 39
 -1.519773e+001 -1.325328e+000 3.992400e+000 2.449413e+000 6.512537e+000 4.609341e+000 4.906211e+000 6.885046e+000 8.659035e+000 8.693961e+000 4.303304e+000 2.979916e+000 2.388612e+000 1.811076e+000 -9.695663e-001 -3.487257e+000 2.054174e-001 1.084154e+000 7.243952e-001 -1.229414e-001 6.585422e-001 -1.828688e+000 -1.712143e+000 -8.497389e-002 5.701492e-001 8.128415e-001 2.068596e+000 2.123952e-001 -6.959574e-001 4.526199e-001 -1.306165e+000 -1.373608e+000 -6.057408e-001 -1.259483e+000 -9.317796e-001 -9.891160e-001 -7.058085e-001 -4.455097e-001 -8.750833e-001
<VARIANCE> 39
 8.359820e+000 6.764966e+000 1.140618e+001 8.340521e+000 1.669774e+001 1.686294e+001 1.177162e+001 1.600681e+001 2.948874e+001 2.996980e+001 1.787821e+001 1.632010e+001 1.929139e+001 2.692382e+000 2.039772e+000 3.674791e+000 1.759045e+000 3.126574e+000 2.313859e+000 3.418907e+000 3.367853e+000 3.744091e+000 4.027787e+000 3.016600e+000 2.069986e+000 2.780447e+000 2.720103e-001 1.716061e-001 5.704195e-001 3.757251e-001 5.945185e-001 7.376301e-001 4.794348e-001 6.816428e-001 8.480313e-001 9.425730e-001 4.091500e-001 3.849232e-001 4.737763e-001
<GCONST> 1.107594e+002
<MIXTURE> 6 1.286469e-001
<MEAN> 39
 -1.527115e+001 -1.095624e+000 5.155717e+000 2.463746e+000 4.408319e+000 3.149034e+000 3.595160e+000 7.058369e+000 8.773336e+000 7.338619e+000 4.772482e+000 1.550744e-001 6.405169e-001 -1.417025e+000 -1.277116e+000 -7.907277e-001 -1.517757e+000 1.347732e+000 2.314033e+000 1.173755e+000 1.224419e+000 2.984621e-001 -1.970010e-001 3.822716e-001 1.480701e+000 1.602963e+000 1.962266e+000 1.603122e-001 -9.096801e-001 5.603071e-001 -8.691569e-001 -6.833515e-001 -2.999198e-001 -1.381974e+000 -1.155659e+000 -9.894368e-001 -7.728053e-001 -1.444831e-001 -4.768797e-001
<VARIANCE> 39
 8.885921e+000 5.807238e+000 1.287598e+001 9.261848e+000 1.501738e+001 1.461357e+001 9.312814e+000 1.391094e+001 1.919519e+001 2.562709e+001 2.500350e+001 1.840098e+001 1.089658e+001 7.794223e-001 1.438836e+000 1.043976e+000 1.316541e+000 1.732395e+000 6.100259e+000 1.652314e+000 3.805181e+000 3.161652e+000 1.884179e+000 1.578697e+000 2.073271e+000 1.893053e+000 3.350522e-001 1.977135e-001 4.004928e-001 3.669004e-001 5.816769e-001 6.404979e-001 4.942743e-001 4.211390e-001 7.801771e-001 4.991672e-001 3.069541e-001 3.027033e-001 4.732648e-001
<GCONST> 1.023569e+002
<STATE> 12
<NUMMIXES> 6
<MIXTURE> 1 8.927390e-002
<MEAN> 39
 -5.149435e-001 -9.176567e+000 -5.612329e+000 2.552119e+000 -3.322854e+000 2.256005e+000 7.224243e+000 1.516697e+000 3.775728e+000 2.844322e+000 -1.957981e+000 4.082202e+000 1.447665e+000 3.029280e+000 -4.154107e+000 -2.850516e+000 -1.582136e+000 -9.396058e-001 6.715379e-002 2.891809e+000 1.371814e+000 2.484727e-001 2.347792e+000 3.165804e-001 7.600880e-001 2.960453e+000 -8.079838e-002 4.235019e-001 1.717257e+000 3.815989e-001 -9.440318e-002 -3.845644e-001 -4.100648e-001 -1.200647e+000 6.410487e-002 -1.632049e-001 5.926652e-002 -5.794412e-001 -1.685475e-001
<VARIANCE> 39
 1.409518e+001 2.047146e+001 6.765922e+001 2.441873e+001 3.309394e+001 1.476544e+001 1.716151e+001 1.529842e+001 1.568207e+001 1.954927e+001 2.310427e+001 1.178135e+001 1.476461e+001 2.925816e+000 1.053039e+000 1.327222e+000 2.706153e+000 3.169185e+000 2.993470e+000 2.331380e+000 3.482897e+000 4.819803e+000 5.039886e+000 3.901860e+000 2.399340e+000 1.130084e+000 4.833132e-001 5.462644e-001 1.265370e+000 3.210412e-001 3.110664e-001 2.659361e-001 6.787576e-001 6.775857e-001 6.105798e-001 5.665315e-001 9.242322e-001 3.292997e-001 2.275560e-001
<GCONST> 1.136023e+002
<MIXTURE> 2 1.985648e-001
<MEAN> 39
 -1.971072e+000 -1.395262e+000 -1.338026e+001 4.259953e+000 6.532035e+000 -1.900678e+000 1.510248e+000 7.463384e+000 1.243709e+000 1.633006e+000 2.420873e+000 1.555688e+000 1.302287e+000 4.093016e+000 -2.368897e+000 -2.850394e+000 -1.203975e+000 -3.851514e-001 -2.217360e+000 6.029895e-001 1.641522e+000 -6.237454e-001 -3.330911e-001 -1.195707e-001 2.350866e-001 -1.495052e-001 6.282512e-003 -5.312824e-001 2.394465e+000 8.255962e-002 -1.062114e+000 -2.483591e-001 7.582206e-001 -1.514884e+000 -1.272790e-001 5.012767e-001 -5.129291e-001 -4.951866e-001 -3.592051e-001
<VARIANCE> 39
 1.425798e+001 1.235465e+001 1.376501e+001 1.227957e+001 1.744465e+001 2.436710e+001 2.136438e+001 2.421778e+001 3.111202e+001 2.101882e+001 1.875450e+001 1.495952e+001 2.065110e+001 3.743839e+000 2.513557e+000 4.005225e+000 1.920932e+000 1.964826e+000 3.228357e+000 3.716132e+000 3.449728e+000 3.153751e+000 3.110695e+000 1.823986e+000 3.652625e+000 2.822031e+000 3.399774e-001 2.500258e-001 4.437527e-001 4.255335e-001 4.094895e-001 5.917899e-001 5.839598e-001 6.608069e-001 1.355120e+000 7.559641e-001 5.548274e-001 4.360728e-001 3.387944e-001
<GCONST> 1.143463e+002
<MIXTURE> 3 1.732181e-001
<MEAN> 39
 -9.709694e+000 -3.428854e+000 -1.346025e+000 3.993708e+000 4.647798e+000 4.320454e+000 5.414355e+000 4.722544e+000 3.445822e+000 4.230416e+000 2.080623e-001 3.190986e+000 2.230804e+000 2.514055e+000 -9.100379e-001 -2.806470e+000 -5.857766e-001 -4.447618e-001 -1.609205e+000 3.143412e-001 1.201179e-002 -1.156918e+000 -2.414044e-001 -2.001217e-001 -1.070379e+000 -1.965867e-002 9.410812e-001 1.504404e-001 4.641041e-001 9.430815e-002 -7.350615e-001 -1.127840e+000 -1.375657e-001 -6.101040e-001 -2.024904e-001 6.257698e-003 1.084173e-001 -3.084420e-001 -5.210629e-001
<VARIANCE> 39
 1.885467e+001 2.090156e+001 1.733018e+001 1.825556e+001 2.452240e+001 1.556467e+001 3.052646e+001 2.422294e+001 3.492502e+001 1.992188e+001 1.154970e+001 1.344073e+001 1.436470e+001 3.670558e+000 2.676673e+000 5.937172e+000 1.968276e+000 1.556005e+000 2.306165e+000 1.856846e+000 2.350362e+000 2.601222e+000 2.957165e+000 1.447255e+000 9.086372e-001 2.508765e+000 2.332842e-001 1.527957e-001 9.280186e-001 2.535702e-001 8.270822e-001 5.128496e-001 2.334440e-001 9.559873e-001 3.913960e-001 4.806975e-001 4.418416e-001 3.013766e-001 4.749524e-001
<GCONST> 1.093746e+002
<MIXTURE> 4 1.738823e-001
<MEAN> 39
 -4.172750e+000 -2.704106e+000 -1.111092e+001 4.694623e+000 6.358207e+000 2.477531e+000 1.085957e+000 5.621534e+000 1.709670e+000 1.436967e+000 1.953394e+000 2.289501e+000 4.881251e-001 4.895879e+000 -6.742682e-001 -3.940703e+000 1.053854e-001 -1.216601e+000 -2.713283e+000 -1.744774e+000 -8.851272e-001 -2.770640e+000 -2.798608e+000 -1.359891e+000 -5.742177e-001 -1.391945e+000 -2.046817e-001 -4.266141e-001 1.821729e+000 -4.906819e-002 -7.777088e-001 -7.787790e-001 5.663072e-001 -3.539473e-001 -3.429523e-003 4.223832e-001 1.119108e-001 -3.645775e-001 -3.539138e-001
<VARIANCE> 39
 2.052981e+001 1.644491e+001 2.130365e+001 2.451653e+001 3.193451e+001 3.297499e+001 2.760424e+001 2.430234e+001 2.148633e+001 2.896439e+001 1.546057e+001 1.262329e+001 1.290687e+001 1.050308e+000 2.090436e+000 4.160107e+000 1.569628e+000 2.716917e+000 3.057386e+000 2.264591e+000 2.783539e+000 3.368109e+000 3.705914e+000 1.984655e+000 2.509368e+000 3.086605e+000 1.995642e-001 2.781589e-001 2.806717e-001 6.492928e-001 7.212565e-001 7.899392e-001 4.274807e-001 5.364873e-001 4.791121e-001 5.044917e-001 3.683533e-001 3.811761e-001 3.524331e-001
<GCONST> 1.123134e+002
<MIXTURE> 5 2.240244e-001
<MEAN> 39
 -1.520844e+001 -1.659422e+000 3.997924e+000 2.669861e+000 7.225940e+000 6.296414e+000 5.867486e+000 4.393882e+000 5.543430e+000 4.292318e+000 3.918903e+000 4.391487e+000 5.029647e+000 4.669446e+000 -2.935591e-001 -4.889407e+000 8.145918e-002 -9.212973e-001 -2.235783e+000 -1.309566e+000 -7.903871e-001 -2.512108e+000 -1.193293e+000 -4.896860e-001 -4.398278e-001 -8.537148e-001 1.203155e+000 -3.532780e-001 -6.679723e-002 2.634958e-001 -7.584553e-001 -1.267407e+000 -1.565199e-001 -4.135974e-001 -3.049577e-001 -1.437390e-001 -4.511337e-001 -5.539777e-001 -9.842241e-001
<VARIANCE> 39
 6.079721e+000 1.034574e+001 6.907799e+000 7.254661e+000 1.082215e+001 1.479178e+001 1.850321e+001 2.090304e+001 1.973486e+001 2.591241e+001 1.349385e+001 1.302021e+001 1.973144e+001 1.082211e+000 1.441343e+000 1.683897e+000 1.548930e+000 2.866623e+000 2.777747e+000 2.170816e+000 2.208719e+000 3.323142e+000 2.413483e+000 2.301668e+000 2.920258e+000 2.268843e+000 2.092208e-001 3.235790e-001 5.196636e-001 2.404036e-001 3.456829e-001 5.851165e-001 6.113146e-001 6.573181e-001 5.711676e-001 6.145732e-001 2.701918e-001 3.376375e-001 3.878303e-001
<GCONST> 1.033356e+002
<MIXTURE> 6 1.410368e-001
<MEAN> 39
 1.374294e+000 -8.094810e+000 -9.295342e+000 5.079222e+000 9.355807e-002 -2.358674e+000 4.147133e+000 -6.815486e-001 5.175311e-001 4.909993e+000 -4.451784e+000 2.690617e+000 -1.595252e-001 3.049344e+000 -3.858627e+000 -2.406369e+000 -1.641216e+000 -1.080820e+000 -1.305799e+000 1.714200e+000 1.060886e+000 -3.721399e-001 4.342337e-001 2.400108e-001 -4.318914e-001 -1.062894e-002 -1.730191e-001 3.387968e-001 2.353216e+000 -1.140871e-002 -9.581148e-001 -3.620120e-001 -1.483526e-001 -1.178358e+000 8.373007e-003 -5.710247e-001 1.211661e-001 -4.757075e-001 -4.339906e-001
<VARIANCE> 39
 1.853036e+001 1.626101e+001 2.040053e+001 1.482372e+001 1.280967e+001 3.614684e+001 1.949773e+001 3.026089e+001 2.325913e+001 2.098509e+001 2.906222e+001 4.725716e+001 1.328733e+001 1.971703e+000 2.483353e+000 3.312287e+000 1.456517e+000 3.678835e+000 2.295466e+000 2.768701e+000 5.353161e+000 3.258729e+000 2.084857e+000 3.128868e+000 2.241938e+000 1.772655e+000 3.520592e-001 1.367252e-001 6.096369e-001 1.808808e-001 5.150455e-001 9.196439e-001 7.709173e-001 9.106809e-001 6.592607e-001 4.571442e-001 4.262176e-001 7.547733e-001 2.849885e-001
<GCONST> 1.141174e+002
<STATE> 13
<NUMMIXES> 6
<MIXTURE> 1 6.947094e-002
<MEAN> 39
 -9.906593e-001 -1.035611e+001 -8.833520e-001 3.129273e+000 -3.380896e+000 1.701760e+000 8.895554e+000 -2.195335e+000 3.654089e+000 6.586535e+000 -3.668625e+000 3.650266e-001 4.581247e+000 4.130889e-001 -1.411562e+000 6.738773e-001 -7.287386e-001 1.516640e+000 -9.784901e-001 1.711743e+000 4.723098e-001 -3.072114e-002 1.005703e+000 9.496808e-001 -1.309700e+000 1.222182e+000 -5.457454e-001 5.420784e-001 1.089066e+000 3.320550e-001 5.797108e-001 -1.205198e-001 -2.626916e-001 -3.437513e-001 9.865137e-002 -3.510449e-001 3.248408e-001 9.119926e-002 -5.950481e-001
<VARIANCE> 39
 1.678566e+001 7.178833e+000 3.949023e+000 1.946716e+001 3.937965e+001 3.059513e+001 2.261823e+001 1.090394e+001 2.382425e+001 4.233975e+001 2.286345e+001 1.354221e+001 2.425908e+001 7.503236e-001 4.793733e+000 5.744720e+000 9.085258e-001 2.034935e+000 3.377650e+000 1.778019e+000 1.447594e+000 1.584403e+000 7.647517e+000 4.259746e+000 3.080076e+000 3.434908e+000 1.947718e-001 4.479514e-001 4.171449e-001 4.512381e-001 6.857615e-001 4.006908e-001 7.503551e-001 4.397015e-001 2.959190e-001 1.474288e+000 6.110759e-001 2.731729e-001 5.597568e-001
<GCONST> 1.116521e+002
<MIXTURE> 2 1.702271e-001
<MEAN> 39
 3.136440e+000 -2.303830e+000 -1.471857e+001 -4.248154e-001 2.255895e+000 -3.312168e+000 -1.534577e+000 3.279017e+000 1.889688e+000 3.296673e+000 2.708898e+000 4.291315e+000 1.579423e+000 3.618227e+000 -2.789034e+000 -8.934850e-001 3.047381e-003 -1.193801e+000 -2.672256e+000 8.605736e-001 1.885954e-001 -1.471867e+000 -3.068517e-001 -8.832958e-002 -6.454129e-001 -8.210603e-001 -1.418769e+000 -7.158449e-001 2.630198e+000 2.794009e-001 1.203964e-001 3.789306e-001 1.119052e+000 -2.672028e-001 -4.061294e-002 1.458567e-001 1.056221e-001 -5.281913e-001 -3.268472e-001
<VARIANCE> 39
 1.547117e+001 1.482803e+001 1.264209e+001 1.577499e+001 2.729432e+001 1.883555e+001 1.883081e+001 1.442757e+001 1.856745e+001 1.220676e+001 2.396772e+001 4.258311e+001 2.905891e+001 1.509237e+000 2.016765e+000 4.268277e+000 1.130368e+000 1.818415e+000 2.214471e+000 2.884845e+000 9.502824e-001 3.451813e+000 2.968755e+000 1.693442e+000 2.410096e+000 3.002897e+000 2.810757e-001 3.522176e-001 3.433072e-001 2.910572e-001 4.760946e-001 6.722522e-001 7.603180e-001 7.369527e-001 7.854123e-001 2.917686e-001 4.656068e-001 1.065775e+000 6.022121e-001
<GCONST> 1.108818e+002
<MIXTURE> 3 2.024103e-001
<MEAN> 39
 5.481847e-001 -2.125296e+000 -7.511145e+000 1.800868e+000 2.996156e+000 -6.078945e+000 8.769960e-001 4.144682e+000 8.874596e-001 9.490329e-001 4.355192e-001 -1.105455e+000 -3.344411e+000 7.665282e-001 -2.987281e+000 2.575166e+000 -1.021686e-001 -2.631908e-001 -9.419882e-001 1.878155e+000 5.565970e-001 -4.439822e-001 3.197663e-001 6.188605e-001 -2.357221e-001 -9.626341e-001 -1.174544e+000 -6.699849e-001 1.395498e+000 -1.088130e-001 1.010135e-001 9.740802e-001 7.807288e-001 -1.832790e-001 3.532194e-001 6.223266e-001 4.889711e-001 3.276523e-001 5.324355e-001
<VARIANCE> 39
 1.552407e+001 9.406855e+000 2.087216e+001 2.125671e+001 2.023384e+001 1.478718e+001 2.571348e+001 2.146131e+001 1.996944e+001 1.829464e+001 2.306923e+001 1.035168e+001 9.909087e+000 2.210628e+000 9.375170e-001 3.214347e+000 1.207730e+000 2.387192e+000 4.347219e+000 2.505195e+000 2.050956e+000 3.338092e+000 1.505933e+000 1.955678e+000 2.027776e+000 1.350970e+000 4.194363e-001 3.145320e-001 4.316044e-001 5.345551e-001 4.614300e-001 4.799273e-001 5.500152e-001 4.763410e-001 6.611293e-001 4.637766e-001 4.992713e-001 3.258467e-001 4.146118e-001
<GCONST> 1.075776e+002
<MIXTURE> 4 1.814830e-001
<MEAN> 39
 3.802327e+000 -2.129498e+000 -1.254470e+001 3.930440e+000 2.070401e-001 -4.763257e+000 -1.029187e+000 2.467029e+000 -2.977552e+000 -5.408643e-001 -8.893238e-001 1.480607e-001 -2.030662e+000 3.842170e+000 -2.026603e+000 -7.174509e-001 -1.367342e-001 -1.930743e+000 -3.160252e+000 1.143531e-001 -5.379423e-001 -2.443993e+000 -7.838972e-001 -6.399353e-001 -1.467294e+000 -1.497891e+000 -1.477025e+000 -6.799714e-001 2.315576e+000 -3.426279e-001 1.778542e-001 5.457512e-001 9.750074e-001 -9.518813e-002 6.634931e-001 9.073536e-001 4.446661e-001 -6.676091e-002 2.521052e-001
<VARIANCE> 39
 1.503114e+001 1.802354e+001 2.325340e+001 1.069425e+001 2.016294e+001 2.147539e+001 2.352964e+001 2.959945e+001 3.171003e+001 1.809782e+001 2.350189e+001 1.180510e+001 1.169011e+001 7.691597e-001 1.835290e+000 1.877952e+000 2.201765e+000 2.828678e+000 2.273172e+000 1.824305e+000 2.521905e+000 2.330136e+000 2.971406e+000 1.593265e+000 1.147499e+000 2.215328e+000 1.326656e-001 3.729426e-001 5.142677e-001 2.574074e-001 7.070652e-001 6.583872e-001 7.098237e-001 6.375533e-001 8.578668e-001 9.389853e-001 7.445093e-001 4.052030e-001 3.431468e-001
<GCONST> 1.092638e+002
<MIXTURE> 5 2.518888e-001
<MEAN> 39
 4.407754e+000 -4.951705e+000 -8.097299e+000 1.230379e+000 1.315798e+000 -8.744931e+000 8.185285e-001 3.546634e+000 -2.351282e+000 7.234753e-001 -7.722204e-001 -4.770046e-001 -8.369012e-001 1.376368e+000 -3.849055e+000 2.940417e+000 -1.094512e+000 -1.321096e+000 -9.250834e-001 2.514749e+000 -8.711994e-001 -1.305686e+000 1.254973e+000 5.618945e-001 -6.354904e-001 -1.638616e-002 -1.425462e+000 -3.289249e-002 1.860938e+000 2.438984e-002 2.994857e-001 1.053095e+000 4.223477e-001 -9.001023e-001 4.354921e-001 5.620063e-001 2.004587e-001 -1.261010e-001 6.724478e-002
<VARIANCE> 39
 1.159952e+001 1.652751e+001 2.635819e+001 9.710573e+000 2.208014e+001 2.247733e+001 3.334177e+001 3.029319e+001 2.538308e+001 4.289590e+001 2.291145e+001 2.879259e+001 1.717072e+001 1.624776e+000 1.645942e+000 3.847800e+000 2.633514e+000 2.010192e+000 2.342486e+000 3.965012e+000 2.584207e+000 2.529421e+000 3.728306e+000 3.373101e+000 3.699037e+000 1.860137e+000 2.847469e-001 3.245323e-001 6.302536e-001 2.803385e-001 6.980343e-001 5.176028e-001 7.419837e-001 9.303164e-001 6.830246e-001 9.983375e-001 5.448127e-001 6.053104e-001 3.837406e-001
<GCONST> 1.165417e+002
<MIXTURE> 6 1.245202e-001
<MEAN> 39
 1.315309e+000 -9.756062e+000 -4.242465e+000 4.792743e+000 -3.618085e+000 -5.010622e+000 6.679767e+000 -7.892234e-001 -1.018082e+000 3.117667e+000 -1.224027e+000 5.900858e-001 1.314057e+000 1.569170e+000 -1.749291e+000 9.675996e-001 -1.495441e+000 -5.334712e-001 -1.804442e+000 9.193800e-001 -1.821953e-001 -1.109993e+000 -5.131149e-001 -1.515438e-001 -1.391951e+000 4.645492e-001 -8.173378e-001 4.064362e-001 1.498230e+000 1.382870e-001 6.473581e-001 5.485680e-001 -2.483175e-001 -2.220423e-002 3.543289e-001 1.719782e-001 3.658833e-001 -3.617049e-001 -4.428423e-001
<VARIANCE> 39
 1.185086e+001 1.483149e+001 2.640935e+001 1.845798e+001 2.824421e+001 1.781689e+001 2.488717e+001 1.916973e+001 8.409261e+000 1.964333e+001 1.671710e+001 3.497252e+001 8.404924e+000 9.693761e-001 1.806072e+000 3.562108e+000 1.717337e+000 2.786787e+000 2.752044e+000 2.701509e+000 4.992313e+000 3.308956e+000 4.072380e+000 3.862741e+000 1.855228e+000 2.762600e+000 3.518960e-001 3.546820e-001 8.034972e-001 2.180323e-001 6.224578e-001 8.249796e-001 6.474304e-001 3.977066e-001 2.130119e-001 3.154137e-001 6.699460e-001 6.377332e-001 3.046924e-001
<GCONST> 1.110425e+002
<STATE> 14
<NUMMIXES> 6
<MIXTURE> 1 4.680647e-002
<MEAN> 39
 1.975213e+000 -1.773240e+001 2.490385e+000 7.320806e+000 5.796150e-001 -5.326659e+000 1.067589e+001 3.417173e+000 -4.443079e+000 1.171248e+000 4.009402e+000 -4.009728e+000 2.540713e+000 -1.565953e-001 -1.963286e+000 2.323982e+000 4.483850e-002 1.940149e+000 1.052898e+000 2.921110e+000 1.187600e+000 1.742496e+000 2.063178e+000 3.220923e+000 1.052824e+000 5.940198e-001 -5.887546e-001 1.202991e+000 1.679980e-001 -1.864881e-001 1.079911e+000 9.201317e-001 -3.632770e-001 1.099074e-001 1.143363e+000 5.235959e-001 -6.926563e-002 6.468979e-001 9.478611e-003
<VARIANCE> 39
 1.557631e+001 2.931965e+001 5.275798e+000 7.633024e+000 9.445397e+000 2.462431e+001 6.424412e+001 3.156667e+001 4.946962e+001 4.743531e+001 1.417911e+001 7.101722e+001 2.697056e+001 6.804619e-001 3.094486e+000 3.566557e+000 9.464784e-001 2.463941e+000 5.464930e+000 8.250182e-001 7.554194e-001 3.515903e+000 3.335840e+000 2.889448e+000 4.625092e+000 7.592855e-001 5.622732e-002 9.366059e-001 1.256132e-001 2.809828e-001 1.398178e-001 2.755996e-001 9.237692e-001 9.594195e-001 1.250185e+000 4.610977e-001 7.780426e-001 9.267656e-001 3.852653e-001
<GCONST> 1.099023e+002
<MIXTURE> 2 2.478012e-001
<MEAN> 39
 -4.869015e-001 -1.235167e+001 -2.945149e+000 5.536624e+000 7.858505e-001 -6.715880e+000 9.934223e+000 7.251137e+000 -3.003682e+000 1.795692e+000 2.812799e+000 8.876206e-003 -5.060617e+000 -3.072986e-001 -2.447565e+000 1.659879e+000 -1.004253e+000 -1.698442e-001 1.112537e+000 2.102610e+000 2.374407e-001 -5.514982e-003 9.311152e-001 1.343735e+000 -1.118067e+000 -9.230815e-001 -4.945051e-001 6.083429e-001 3.530832e-002 -5.150146e-001 3.447674e-001 1.009888e+000 -6.110517e-001 -6.073627e-001 5.256281e-001 4.908632e-001 -1.079096e-001 2.185887e-002 6.586617e-001
<VARIANCE> 39
 1.536406e+001 1.828041e+001 1.498747e+001 1.179636e+001 2.794156e+001 2.211659e+001 3.546196e+001 3.229080e+001 3.452577e+001 2.185682e+001 3.099450e+001 2.250935e+001 2.891386e+001 7.378234e-001 1.233657e+000 2.549100e+000 9.096352e-001 2.343790e+000 1.773097e+000 2.483927e+000 2.214655e+000 2.360085e+000 2.172142e+000 2.235579e+000 3.372594e+000 1.312302e+000 1.194673e-001 3.693537e-001 5.024253e-001 2.012881e-001 4.077143e-001 3.996962e-001 5.653754e-001 2.970436e-001 5.843674e-001 4.388429e-001 5.980625e-001 5.341265e-001 3.838311e-001
<GCONST> 1.078308e+002
<MIXTURE> 3 1.805407e-001
<MEAN> 39
 9.544344e-001 -1.377529e+001 2.600446e+000 2.332952e+000 -9.266947e-001 9.893498e-001 7.116063e+000 -1.704535e+000 4.023631e+000 5.926022e+000 -1.090505e+000 -1.444685e-001 1.270644e+000 -4.588982e-001 -2.763791e+000 2.398066e+000 -7.449300e-001 1.497717e+000 9.285874e-001 1.738438e+000 -4.547749e-001 4.194295e-001 1.325973e+000 7.525346e-001 -3.339135e-001 1.521926e+000 -7.487544e-001 6.785554e-001 -9.790082e-002 1.236540e-003 6.549605e-001 1.788106e-001 -7.269993e-002 2.716683e-001 -1.694754e-001 -1.071742e-001 2.660531e-001 1.423462e-001 9.782977e-002
<VARIANCE> 39
 1.503480e+001 7.163809e+000 1.060783e+001 1.055771e+001 1.994277e+001 4.609687e+001 2.341709e+001 2.406100e+001 1.528633e+001 2.377796e+001 3.233512e+001 1.168478e+001 1.300469e+001 6.356797e-001 1.963222e+000 2.411603e+000 1.343611e+000 1.499560e+000 2.774245e+000 2.649043e+000 2.188854e+000 2.808384e+000 1.842104e+000 2.849307e+000 3.044618e+000 1.691012e+000 2.350371e-001 2.318829e-001 4.948426e-001 4.082933e-001 3.822606e-001 6.755639e-001 3.845329e-001 3.374325e-001 3.807014e-001 7.314292e-001 5.104614e-001 3.744328e-001 2.137728e-001
<GCONST> 1.051569e+002
<MIXTURE> 4 2.877215e-001
<MEAN> 39
 2.001443e+000 -1.263742e+001 1.345243e+000 2.101647e+000 1.703756e+000 -6.529629e+000 6.666016e+000 2.466119e+000 -3.498021e+000 3.088559e+000 4.976877e-001 -1.899853e+000 -8.147253e-001 -8.994324e-001 -3.737406e+000 3.613478e+000 -1.251251e+000 2.409723e-001 9.752472e-001 3.269015e+000 -8.329083e-001 -4.136664e-001 1.682185e+000 3.502874e-001 -8.690907e-001 4.776324e-001 -1.033957e+000 6.150163e-001 -1.084572e-001 -1.741048e-001 5.799251e-001 1.089817e+000 -2.119524e-001 -4.702831e-002 6.527733e-001 4.887442e-002 7.710300e-002 3.072309e-001 2.533333e-001
<VARIANCE> 39
 9.064185e+000 2.751857e+001 1.931499e+001 2.295816e+001 1.310467e+001 1.267431e+001 3.621771e+001 2.028971e+001 1.544230e+001 2.502860e+001 2.356667e+001 1.511331e+001 2.118577e+001 3.491398e-001 1.136285e+000 1.869002e+000 1.579940e+000 2.116201e+000 2.295229e+000 2.489071e+000 2.424168e+000 2.867049e+000 3.333981e+000 3.084691e+000 3.469488e+000 1.821038e+000 1.788505e-001 3.425291e-001 5.631657e-001 3.139895e-001 3.690025e-001 3.511209e-001 8.375569e-001 3.053870e-001 3.238396e-001 4.522129e-001 5.712941e-001 4.706454e-001 3.344266e-001
<GCONST> 1.063903e+002
<MIXTURE> 5 1.615687e-001
<MEAN> 39
 7.376818e-001 -1.269858e+001 -2.608363e+000 2.887670e+000 4.426989e+000 -4.734033e+000 7.971915e+000 7.763528e+000 -6.827356e-001 2.993011e+000 4.947895e+000 3.730777e+000 -2.314859e+000 2.793425e-002 -2.931786e+000 2.972865e+000 -8.860320e-001 -1.331572e+000 -4.763293e-002 1.861107e+000 -1.446005e+000 -1.255519e+000 4.416806e-001 1.104440e-001 -1.108845e+000 -9.177933e-001 -7.883665e-001 8.826592e-001 2.508743e-001 -2.667621e-001 -1.460606e-001 4.818382e-001 -3.806961e-001 -8.721058e-001 8.480415e-002 -1.272056e-001 -2.541731e-001 -6.476502e-001 1.578011e-001
<VARIANCE> 39
 1.143723e+001 1.499385e+001 1.760658e+001 1.200781e+001 1.726508e+001 2.255099e+001 2.245091e+001 2.234660e+001 3.614288e+001 3.936928e+001 1.130762e+001 2.341891e+001 2.363678e+001 1.061473e+000 1.300902e+000 2.158397e+000 2.906572e+000 2.185729e+000 2.045182e+000 3.737457e+000 3.229019e+000 3.808887e+000 1.535406e+000 2.746466e+000 3.288275e+000 2.934401e+000 5.540211e-001 2.160842e-001 4.809909e-001 2.009506e-001 3.624364e-001 6.679854e-001 4.818399e-001 3.398009e-001 7.812423e-001 9.616192e-001 1.903448e-001 6.349791e-001 3.309864e-001
<GCONST> 1.103588e+002
<MIXTURE> 6 7.556109e-002
<MEAN> 39
 3.778703e+000 -1.357958e+001 9.836741e-001 3.925044e+000 -2.223382e+000 -3.304298e+000 9.902120e+000 -9.025705e-001 -6.665235e+000 3.781138e+000 -5.258193e-001 -7.357303e+000 4.348968e-001 -1.026033e+000 -3.182224e+000 2.797610e+000 -5.281800e-001 1.116671e+000 1.431619e+000 2.101131e+000 -6.967548e-001 -2.948425e-001 1.718320e+000 1.142441e+000 -6.931788e-001 7.749241e-001 -9.813002e-001 9.949539e-001 -2.747250e-002 -2.845860e-001 1.129222e+000 5.523733e-001 -7.141423e-001 4.143515e-002 1.071466e+000 -2.578785e-001 2.703779e-001 8.770986e-001 -2.479411e-001
<VARIANCE> 39
 9.427114e+000 1.787794e+001 8.460107e+000 5.379601e+000 1.151211e+001 1.141035e+001 1.178837e+001 2.506880e+001 6.550088e+000 3.969634e+001 7.337684e+000 2.260740e+001 4.142035e+001 7.022673e-001 1.646326e+000 2.747211e+000 1.255788e+000 1.784638e+000 3.765087e+000 1.379572e+000 4.946040e+000 2.430320e+000 2.188780e+000 1.073638e+000 1.685522e+000 1.218099e+000 8.030774e-002 2.975921e-001 1.385238e-001 7.240627e-002 3.205984e-001 1.749322e-001 3.298822e-001 3.125428e-001 2.930227e-001 4.880642e-001 2.331175e-001 4.531096e-001 8.572923e-001
<GCONST> 9.541972e+001
<STATE> 15
<NUMMIXES> 6
<MIXTURE> 1 5.453929e-002
<MEAN> 39
 1.830148e+000 -1.628329e+001 5.644506e+000 2.518291e+000 8.841481e+000 -4.550499e+000 1.233636e+001 9.214124e+000 1.182334e+000 4.076747e+000 1.024564e+001 1.483234e-001 -3.498723e-001 -2.257206e-001 5.437468e-001 2.064814e+000 -7.752296e-001 2.354582e+000 1.877583e+000 3.023877e-001 9.624888e-001 1.435163e+000 1.739314e+000 8.697565e-001 7.000397e-001 -3.412070e-001 -1.030361e-001 6.951265e-001 -2.563228e-001 7.851014e-002 -4.034090e-001 3.029112e-001 -1.117383e+000 -6.300344e-001 -4.065782e-001 -2.757466e-001 -1.244840e+000 -4.572736e-002 3.216238e-002
<VARIANCE> 39
 1.748963e+001 2.065632e+001 2.708517e+001 2.535168e+001 9.726152e+000 3.497621e+001 9.195127e+000 3.219352e+001 3.056697e+001 5.082376e+001 2.791271e+001 2.261141e+001 3.424870e+001 2.837379e-001 2.047475e+000 2.418724e+000 2.936489e+000 1.946480e+000 3.823447e+000 2.069966e+000 2.700919e+000 1.555746e+000 9.343629e-001 5.453744e+000 2.823539e+000 1.801852e+000 2.501825e-002 4.367670e-001 3.351314e-001 6.740481e-001 4.669638e-001 1.317010e+000 2.209770e-001 3.793655e-001 6.004556e-001 2.494701e-001 5.944678e-001 1.303521e+000 4.877616e-001
<GCONST> 1.099502e+002
<MIXTURE> 2 2.778253e-001
<MEAN> 39
 1.169761e+000 -1.325272e+001 -2.732752e+000 -1.360521e+000 -9.426082e-001 -3.924588e+000 7.522747e+000 1.823538e+000 -2.889039e+000 5.554720e+000 2.445023e+000 -2.700444e+000 -2.958034e+000 -3.587997e-001 -5.294055e-001 5.164984e-001 -1.788861e+000 2.739796e-001 8.244832e-001 -1.060240e-001 -1.230324e+000 8.184119e-001 6.449687e-001 9.753475e-002 -5.730959e-001 4.543576e-001 2.120839e-002 7.911816e-001 -2.834847e-001 2.912166e-001 4.638134e-001 -4.128026e-002 -5.817589e-001 2.076294e-001 2.140069e-001 -4.885113e-001 -5.093955e-002 4.757412e-001 1.868552e-001
<VARIANCE> 39
 1.152994e+001 1.182415e+001 1.380532e+001 9.202037e+000 1.209120e+001 2.090743e+001 2.396247e+001 2.132943e+001 2.324282e+001 2.465600e+001 2.278691e+001 2.157827e+001 1.825977e+001 2.520809e-001 7.218906e-001 8.016465e-001 5.041263e-001 1.425202e+000 1.761547e+000 2.375169e+000 2.088227e+000 1.861613e+000 3.534808e+000 3.224920e+000 2.908345e+000 2.432418e+000 7.220440e-002 1.785507e-001 1.922493e-001 1.427078e-001 2.093408e-001 3.441211e-001 6.520072e-001 4.031696e-001 6.158492e-001 4.905846e-001 6.236967e-001 4.991927e-001 4.271522e-001
<GCONST> 9.845490e+001
<MIXTURE> 3 1.977152e-001
<MEAN> 39
 -6.007863e-001 -1.853004e+001 2.869229e+000 2.989688e-001 3.061305e+000 -1.819908e+000 1.004717e+001 -1.780517e-001 -9.245490e-001 7.741191e+000 1.377633e+000 -6.810439e-001 2.102490e+000 -1.089434e+000 -1.757762e+000 1.251010e+000 -1.203393e+000 1.730223e+000 1.552751e+000 1.161587e+000 5.498029e-002 7.866682e-001 1.025417e+000 1.369488e+000 2.647541e-001 8.068094e-001 -1.151783e-001 1.255699e+000 -8.104414e-001 -4.585295e-002 8.691448e-002 5.265794e-002 -8.707319e-001 2.588313e-001 3.155963e-001 -5.385541e-001 -6.785085e-002 1.975760e-001 -2.863714e-001
<VARIANCE> 39
 9.346119e+000 1.777154e+001 1.037533e+001 1.189041e+001 1.507116e+001 2.212498e+001 1.903145e+001 1.718454e+001 2.375972e+001 1.736503e+001 1.890110e+001 3.277080e+001 1.461682e+001 2.683077e-001 2.710428e+000 1.449561e+000 7.331607e-001 1.257179e+000 1.938062e+000 3.193445e+000 2.303878e+000 2.791744e+000 2.227806e+000 1.201597e+000 2.331156e+000 1.784679e+000 1.257677e-001 1.161020e-001 3.138492e-001 1.474946e-001 3.089572e-001 4.507117e-001 5.696625e-001 3.520966e-001 4.851861e-001 3.935859e-001 3.737181e-001 5.875847e-001 3.498220e-001
<GCONST> 9.930400e+001
<MIXTURE> 4 1.629364e-001
<MEAN> 39
 -1.052065e+000 -1.474366e+001 1.050668e+000 8.571565e-001 1.171016e+000 2.092613e-001 9.970360e+000 -1.295141e+000 -4.849288e+000 6.217326e+000 2.125628e+000 -2.788856e+000 -2.113413e-001 -6.445595e-001 -8.481140e-001 8.303695e-001 -1.255860e+000 8.931284e-002 4.844002e-001 -3.691736e-001 -2.273043e+000 -6.201078e-001 -3.148772e-001 -1.047810e+000 -7.439422e-001 4.387221e-001 -8.306982e-002 9.639480e-001 -9.135655e-001 -1.050199e-001 4.315884e-001 -2.059136e-001 -9.200159e-001 3.393190e-001 6.306834e-001 -3.891976e-001 -1.958585e-001 1.679743e-001 1.882577e-001
<VARIANCE> 39
 1.869249e+001 1.343703e+001 7.799263e+000 1.497798e+001 2.000000e+001 3.467797e+001 1.259983e+001 4.182987e+001 3.768564e+001 3.095432e+001 3.322335e+001 2.323417e+001 2.702045e+001 3.882918e-001 1.287189e+000 2.233905e+000 1.500304e+000 2.108545e+000 2.115483e+000 3.307826e+000 2.951294e+000 3.238170e+000 2.410670e+000 3.157665e+000 1.490229e+000 2.101176e+000 2.136233e-001 2.240606e-001 2.472151e-001 3.110802e-001 5.345765e-001 4.778487e-001 3.645097e-001 5.833323e-001 6.816788e-001 7.586578e-001 8.836090e-001 6.399638e-001 5.883057e-001
<GCONST> 1.101387e+002
<MIXTURE> 5 1.881683e-001
<MEAN> 39
 -1.269467e+000 -1.625553e+001 2.456486e+000 9.378393e-002 2.415544e+000 -1.038963e-001 1.538719e+001 1.746024e+000 1.996806e+000 9.968350e+000 1.879031e+000 -3.183591e+000 4.741625e+000 -7.879659e-001 -7.250218e-001 9.842251e-001 -1.644035e+000 1.472258e+000 1.270036e+000 4.430182e-002 -3.889719e-001 -2.784916e-001 1.660273e-001 7.264452e-003 -5.700621e-001 8.283059e-001 -5.160967e-003 1.215451e+000 -5.879849e-001 8.666010e-002 -1.055451e-002 -2.102726e-001 -1.550812e+000 6.611935e-002 -3.205002e-001 -1.000344e+000 -1.404774e-001 4.609185e-001 -5.036170e-001
<VARIANCE> 39
 1.315623e+001 1.228996e+001 7.386787e+000 1.659850e+001 6.616527e+000 1.036694e+001 1.641919e+001 2.763664e+001 2.566558e+001 3.528274e+001 1.378772e+001 2.746248e+001 2.114334e+001 3.099181e-001 2.279846e+000 1.020803e+000 1.237840e+000 3.603407e+000 2.395955e+000 3.039568e+000 1.752519e+000 2.081830e+000 3.584121e+000 1.711681e+000 2.568877e+000 3.048249e+000 1.541684e-001 2.221520e-001 3.393461e-001 2.946268e-001 2.878879e-001 5.567225e-001 5.032153e-001 5.705690e-001 3.895612e-001 7.594641e-001 4.932489e-001 4.533277e-001 4.191202e-001
<GCONST> 1.036935e+002
<MIXTURE> 6 1.188148e-001
<MEAN> 39
 -2.811078e+000 -1.792555e+001 2.278035e+000 -6.008333e-001 6.040059e+000 -1.637125e+000 1.020237e+001 6.923759e+000 1.096903e+000 6.262392e+000 1.061709e+001 2.837728e+000 2.564424e-002 -3.922111e-001 4.119985e-001 3.752264e-001 -1.268232e+000 8.267159e-001 6.193234e-001 -4.608648e-001 2.132126e-001 6.884133e-001 -8.551125e-001 6.008456e-001 -1.607410e-001 1.846757e-001 2.370304e-001 8.574922e-001 -2.593461e-001 1.447544e-001 -2.176290e-001 -2.290545e-001 -6.392456e-001 -4.850754e-001 -3.382647e-001 -7.167816e-001 -1.184000e+000 -5.853611e-001 -2.989485e-001
<VARIANCE> 39
 9.739539e+000 1.568371e+001 1.746916e+001 1.111428e+001 2.712080e+001 1.822153e+001 1.991648e+001 2.507131e+001 2.958093e+001 3.150997e+001 1.063633e+001 1.354849e+001 4.684401e+001 4.603760e-001 1.306498e+000 8.936702e-001 1.583130e+000 7.619287e-001 2.866941e+000 3.876157e+000 3.802795e+000 4.025343e+000 2.815305e+000 3.132914e+000 1.270947e+000 2.147113e+000 7.752660e-002 3.608994e-001 3.141030e-001 1.710610e-001 2.588679e-001 9.152152e-001 6.740541e-001 5.183216e-001 5.134037e-001 2.821532e-001 2.276604e-001 4.339186e-001 3.719200e-001
