~o
<STREAMINFO> 1 39
<VECSIZE> 39<NULLD><USER>
~h "sil"
<BEGINHMM>
<NUMSTATES> 18
<STATE> 2
<MEAN> 39
8.721242e-010 -2.898837e-008 8.343755e-009 2.447154e-009 -2.332607e-008 2.741415e-008 3.433176e-009 -1.404510e-008 -1.701944e-009 1.332918e-008 -5.987718e-009 -1.854891e-009 5.345015e-010 6.283470e-004 1.515644e-002 1.980711e-002 1.433912e-002 1.171466e-002 1.099615e-002 1.035604e-003 9.051810e-004 -2.162945e-003 -5.140798e-003 3.192199e-004 2.492317e-003 -2.988119e-003 -2.487397e-004 -3.363372e-005 -8.738435e-005 -6.414981e-004 -6.262157e-004 -2.929319e-005 1.025560e-003 -6.844631e-005 7.742129e-004 1.861446e-004 7.130380e-005 -1.083939e-004 1.776269e-004
<VARIANCE> 39
1.153529e+002 4.721613e+001 5.634021e+001 5.808212e+001 8.033640e+001 7.021080e+001 6.295847e+001 5.240024e+001 5.233024e+001 5.633980e+001 4.597054e+001 3.999132e+001 3.359735e+001 2.383270e+000 2.433319e+000 2.442625e+000 2.571082e+000 3.808628e+000 3.402900e+000 3.853476e+000 3.579180e+000 3.414403e+000 3.381054e+000 3.123485e+000 2.900685e+000 2.464528e+000 3.033425e-001 3.686736e-001 3.597603e-001 4.018120e-001 5.562087e-001 5.465507e-001 6.643626e-001 6.294959e-001 6.168208e-001 5.901449e-001 5.582229e-001 5.186911e-001 4.535647e-001
<GCONST> 1.292377e+002
<STATE> 3
<MEAN> 39
8.721242e-010 -2.898837e-008 8.343755e-009 2.447154e-009 -2.332607e-008 2.741415e-008 3.433176e-009 -1.404510e-008 -1.701944e-009 1.332918e-008 -5.987718e-009 -1.854891e-009 5.345015e-010 6.283470e-004 1.515644e-002 1.980711e-002 1.433912e-002 1.171466e-002 1.099615e-002 1.035604e-003 9.051810e-004 -2.162945e-003 -5.140798e-003 3.192199e-004 2.492317e-003 -2.988119e-003 -2.487397e-004 -3.363372e-005 -8.738435e-005 -6.414981e-004 -6.262157e-004 -2.929319e-005 1.025560e-003 -6.844631e-005 7.742129e-004 1.861446e-004 7.130380e-005 -1.083939e-004 1.776269e-004
<VARIANCE> 39
1.153529e+002 4.721613e+001 5.634021e+001 5.808212e+001 8.033640e+001 7.021080e+001 6.295847e+001 5.240024e+001 5.233024e+001 5.633980e+001 4.597054e+001 3.999132e+001 3.359735e+001 2.383270e+000 2.433319e+000 2.442625e+000 2.571082e+000 3.808628e+000 3.402900e+000 3.853476e+000 3.579180e+000 3.414403e+000 3.381054e+000 3.123485e+000 2.900685e+000 2.464528e+000 3.033425e-001 3.686736e-001 3.597603e-001 4.018120e-001 5.562087e-001 5.465507e-001 6.643626e-001 6.294959e-001 6.168208e-001 5.901449e-001 5.582229e-001 5.186911e-001 4.535647e-001
<GCONST> 1.292377e+002
<STATE> 4
<MEAN> 39
8.721242e-010 -2.898837e-008 8.343755e-009 2.447154e-009 -2.332607e-008 2.741415e-008 3.433176e-009 -1.404510e-008 -1.701944e-009 1.332918e-008 -5.987718e-009 -1.854891e-009 5.345015e-010 6.283470e-004 1.515644e-002 1.980711e-002 1.433912e-002 1.171466e-002 1.099615e-002 1.035604e-003 9.051810e-004 -2.162945e-003 -5.140798e-003 3.192199e-004 2.492317e-003 -2.988119e-003 -2.487397e-004 -3.363372e-005 -8.738435e-005 -6.414981e-004 -6.262157e-004 -2.929319e-005 1.025560e-003 -6.844631e-005 7.742129e-004 1.861446e-004 7.130380e-005 -1.083939e-004 1.776269e-004
<VARIANCE> 39
1.153529e+002 4.721613e+001 5.634021e+001 5.808212e+001 8.033640e+001 7.021080e+001 6.295847e+001 5.240024e+001 5.233024e+001 5.633980e+001 4.597054e+001 3.999132e+001 3.359735e+001 2.383270e+000 2.433319e+000 2.442625e+000 2.571082e+000 3.808628e+000 3.402900e+000 3.853476e+000 3.579180e+000 3.414403e+000 3.381054e+000 3.123485e+000 2.900685e+000 2.464528e+000 3.033425e-001 3.686736e-001 3.597603e-001 4.018120e-001 5.562087e-001 5.465507e-001 6.643626e-001 6.294959e-001 6.168208e-001 5.901449e-001 5.582229e-001 5.186911e-001 4.535647e-001
<GCONST> 1.292377e+002
<STATE> 5
<MEAN> 39
8.721242e-010 -2.898837e-008 8.343755e-009 2.447154e-009 -2.332607e-008 2.741415e-008 3.433176e-009 -1.404510e-008 -1.701944e-009 1.332918e-008 -5.987718e-009 -1.854891e-009 5.345015e-010 6.283470e-004 1.515644e-002 1.980711e-002 1.433912e-002 1.171466e-002 1.099615e-002 1.035604e-003 9.051810e-004 -2.162945e-003 -5.140798e-003 3.192199e-004 2.492317e-003 -2.988119e-003 -2.487397e-004 -3.363372e-005 -8.738435e-005 -6.414981e-004 -6.262157e-004 -2.929319e-005 1.025560e-003 -6.844631e-005 7.742129e-004 1.861446e-004 7.130380e-005 -1.083939e-004 1.776269e-004
<VARIANCE> 39
1.153529e+002 4.721613e+001 5.634021e+001 5.808212e+001 8.033640e+001 7.021080e+001 6.295847e+001 5.240024e+001 5.233024e+001 5.633980e+001 4.597054e+001 3.999132e+001 3.359735e+001 2.383270e+000 2.433319e+000 2.442625e+000 2.571082e+000 3.808628e+000 3.402900e+000 3.853476e+000 3.579180e+000 3.414403e+000 3.381054e+000 3.123485e+000 2.900685e+000 2.464528e+000 3.033425e-001 3.686736e-001 3.597603e-001 4.018120e-001 5.562087e-001 5.465507e-001 6.643626e-001 6.294959e-001 6.168208e-001 5.901449e-001 5.582229e-001 5.186911e-001 4.535647e-001
<GCONST> 1.292377e+002
<STATE> 6
<MEAN> 39
8.721242e-010 -2.898837e-008 8.343755e-009 2.447154e-009 -2.332607e-008 2.741415e-008 3.433176e-009 -1.404510e-008 -1.701944e-009 1.332918e-008 -5.987718e-009 -1.854891e-009 5.345015e-010 6.283470e-004 1.515644e-002 1.980711e-002 1.433912e-002 1.171466e-002 1.099615e-002 1.035604e-003 9.051810e-004 -2.162945e-003 -5.140798e-003 3.192199e-004 2.492317e-003 -2.988119e-003 -2.487397e-004 -3.363372e-005 -8.738435e-005 -6.414981e-004 -6.262157e-004 -2.929319e-005 1.025560e-003 -6.844631e-005 7.742129e-004 1.861446e-004 7.130380e-005 -1.083939e-004 1.776269e-004
<VARIANCE> 39
1.153529e+002 4.721613e+001 5.634021e+001 5.808212e+001 8.033640e+001 7.021080e+001 6.295847e+001 5.240024e+001 5.233024e+001 5.633980e+001 4.597054e+001 3.999132e+001 3.359735e+001 2.383270e+000 2.433319e+000 2.442625e+000 2.571082e+000 3.808628e+000 3.402900e+000 3.853476e+000 3.579180e+000 3.414403e+000 3.381054e+000 3.123485e+000 2.900685e+000 2.464528e+000 3.033425e-001 3.686736e-001 3.597603e-001 4.018120e-001 5.562087e-001 5.465507e-001 6.643626e-001 6.294959e-001 6.168208e-001 5.901449e-001 5.582229e-001 5.186911e-001 4.535647e-001
<GCONST> 1.292377e+002
<STATE> 7
<MEAN> 39
8.721242e-010 -2.898837e-008 8.343755e-009 2.447154e-009 -2.332607e-008 2.741415e-008 3.433176e-009 -1.404510e-008 -1.701944e-009 1.332918e-008 -5.987718e-009 -1.854891e-009 5.345015e-010 6.283470e-004 1.515644e-002 1.980711e-002 1.433912e-002 1.171466e-002 1.099615e-002 1.035604e-003 9.051810e-004 -2.162945e-003 -5.140798e-003 3.192199e-004 2.492317e-003 -2.988119e-003 -2.487397e-004 -3.363372e-005 -8.738435e-005 -6.414981e-004 -6.262157e-004 -2.929319e-005 1.025560e-003 -6.844631e-005 7.742129e-004 1.861446e-004 7.130380e-005 -1.083939e-004 1.776269e-004
<VARIANCE> 39
1.153529e+002 4.721613e+001 5.634021e+001 5.808212e+001 8.033640e+001 7.021080e+001 6.295847e+001 5.240024e+001 5.233024e+001 5.633980e+001 4.597054e+001 3.999132e+001 3.359735e+001 2.383270e+000 2.433319e+000 2.442625e+000 2.571082e+000 3.808628e+000 3.402900e+000 3.853476e+000 3.579180e+000 3.414403e+000 3.381054e+000 3.123485e+000 2.900685e+000 2.464528e+000 3.033425e-001 3.686736e-001 3.597603e-001 4.018120e-001 5.562087e-001 5.465507e-001 6.643626e-001 6.294959e-001 6.168208e-001 5.901449e-001 5.582229e-001 5.186911e-001 4.535647e-001
<GCONST> 1.292377e+002
<STATE> 8
<MEAN> 39
8.721242e-010 -2.898837e-008 8.343755e-009 2.447154e-009 -2.332607e-008 2.741415e-008 3.433176e-009 -1.404510e-008 -1.701944e-009 1.332918e-008 -5.987718e-009 -1.854891e-009 5.345015e-010 6.283470e-004 1.515644e-002 1.980711e-002 1.433912e-002 1.171466e-002 1.099615e-002 1.035604e-003 9.051810e-004 -2.162945e-003 -5.140798e-003 3.192199e-004 2.492317e-003 -2.988119e-003 -2.487397e-004 -3.363372e-005 -8.738435e-005 -6.414981e-004 -6.262157e-004 -2.929319e-005 1.025560e-003 -6.844631e-005 7.742129e-004 1.861446e-004 7.130380e-005 -1.083939e-004 1.776269e-004
<VARIANCE> 39
1.153529e+002 4.721613e+001 5.634021e+001 5.808212e+001 8.033640e+001 7.021080e+001 6.295847e+001 5.240024e+001 5.233024e+001 5.633980e+001 4.597054e+001 3.999132e+001 3.359735e+001 2.383270e+000 2.433319e+000 2.442625e+000 2.571082e+000 3.808628e+000 3.402900e+000 3.853476e+000 3.579180e+000 3.414403e+000 3.381054e+000 3.123485e+000 2.900685e+000 2.464528e+000 3.033425e-001 3.686736e-001 3.597603e-001 4.018120e-001 5.562087e-001 5.465507e-001 6.643626e-001 6.294959e-001 6.168208e-001 5.901449e-001 5.582229e-001 5.186911e-001 4.535647e-001
<GCONST> 1.292377e+002
<STATE> 9
<MEAN> 39
8.721242e-010 -2.898837e-008 8.343755e-009 2.447154e-009 -2.332607e-008 2.741415e-008 3.433176e-009 -1.404510e-008 -1.701944e-009 1.332918e-008 -5.987718e-009 -1.854891e-009 5.345015e-010 6.283470e-004 1.515644e-002 1.980711e-002 1.433912e-002 1.171466e-002 1.099615e-002 1.035604e-003 9.051810e-004 -2.162945e-003 -5.140798e-003 3.192199e-004 2.492317e-003 -2.988119e-003 -2.487397e-004 -3.363372e-005 -8.738435e-005 -6.414981e-004 -6.262157e-004 -2.929319e-005 1.025560e-003 -6.844631e-005 7.742129e-004 1.861446e-004 7.130380e-005 -1.083939e-004 1.776269e-004
<VARIANCE> 39
1.153529e+002 4.721613e+001 5.634021e+001 5.808212e+001 8.033640e+001 7.021080e+001 6.295847e+001 5.240024e+001 5.233024e+001 5.633980e+001 4.597054e+001 3.999132e+001 3.359735e+001 2.383270e+000 2.433319e+000 2.442625e+000 2.571082e+000 3.808628e+000 3.402900e+000 3.853476e+000 3.579180e+000 3.414403e+000 3.381054e+000 3.123485e+000 2.900685e+000 2.464528e+000 3.033425e-001 3.686736e-001 3.597603e-001 4.018120e-001 5.562087e-001 5.465507e-001 6.643626e-001 6.294959e-001 6.168208e-001 5.901449e-001 5.582229e-001 5.186911e-001 4.535647e-001
<GCONST> 1.292377e+002
<STATE> 10
<MEAN> 39
8.721242e-010 -2.898837e-008 8.343755e-009 2.447154e-009 -2.332607e-008 2.741415e-008 3.433176e-009 -1.404510e-008 -1.701944e-009 1.332918e-008 -5.987718e-009 -1.854891e-009 5.345015e-010 6.283470e-004 1.515644e-002 1.980711e-002 1.433912e-002 1.171466e-002 1.099615e-002 1.035604e-003 9.051810e-004 -2.162945e-003 -5.140798e-003 3.192199e-004 2.492317e-003 -2.988119e-003 -2.487397e-004 -3.363372e-005 -8.738435e-005 -6.414981e-004 -6.262157e-004 -2.929319e-005 1.025560e-003 -6.844631e-005 7.742129e-004 1.861446e-004 7.130380e-005 -1.083939e-004 1.776269e-004
<VARIANCE> 39
1.153529e+002 4.721613e+001 5.634021e+001 5.808212e+001 8.033640e+001 7.021080e+001 6.295847e+001 5.240024e+001 5.233024e+001 5.633980e+001 4.597054e+001 3.999132e+001 3.359735e+001 2.383270e+000 2.433319e+000 2.442625e+000 2.571082e+000 3.808628e+000 3.402900e+000 3.853476e+000 3.579180e+000 3.414403e+000 3.381054e+000 3.123485e+000 2.900685e+000 2.464528e+000 3.033425e-001 3.686736e-001 3.597603e-001 4.018120e-001 5.562087e-001 5.465507e-001 6.643626e-001 6.294959e-001 6.168208e-001 5.901449e-001 5.582229e-001 5.186911e-001 4.535647e-001
<GCONST> 1.292377e+002
<STATE> 11
<MEAN> 39
8.721242e-010 -2.898837e-008 8.343755e-009 2.447154e-009 -2.332607e-008 2.741415e-008 3.433176e-009 -1.404510e-008 -1.701944e-009 1.332918e-008 -5.987718e-009 -1.854891e-009 5.345015e-010 6.283470e-004 1.515644e-002 1.980711e-002 1.433912e-002 1.171466e-002 1.099615e-002 1.035604e-003 9.051810e-004 -2.162945e-003 -5.140798e-003 3.192199e-004 2.492317e-003 -2.988119e-003 -2.487397e-004 -3.363372e-005 -8.738435e-005 -6.414981e-004 -6.262157e-004 -2.929319e-005 1.025560e-003 -6.844631e-005 7.742129e-004 1.861446e-004 7.130380e-005 -1.083939e-004 1.776269e-004
<VARIANCE> 39
1.153529e+002 4.721613e+001 5.634021e+001 5.808212e+001 8.033640e+001 7.021080e+001 6.295847e+001 5.240024e+001 5.233024e+001 5.633980e+001 4.597054e+001 3.999132e+001 3.359735e+001 2.383270e+000 2.433319e+000 2.442625e+000 2.571082e+000 3.808628e+000 3.402900e+000 3.853476e+000 3.579180e+000 3.414403e+000 3.381054e+000 3.123485e+000 2.900685e+000 2.464528e+000 3.033425e-001 3.686736e-001 3.597603e-001 4.018120e-001 5.562087e-001 5.465507e-001 6.643626e-001 6.294959e-001 6.168208e-001 5.901449e-001 5.582229e-001 5.186911e-001 4.535647e-001
<GCONST> 1.292377e+002
<STATE> 12
<MEAN> 39
8.721242e-010 -2.898837e-008 8.343755e-009 2.447154e-009 -2.332607e-008 2.741415e-008 3.433176e-009 -1.404510e-008 -1.701944e-009 1.332918e-008 -5.987718e-009 -1.854891e-009 5.345015e-010 6.283470e-004 1.515644e-002 1.980711e-002 1.433912e-002 1.171466e-002 1.099615e-002 1.035604e-003 9.051810e-004 -2.162945e-003 -5.140798e-003 3.192199e-004 2.492317e-003 -2.988119e-003 -2.487397e-004 -3.363372e-005 -8.738435e-005 -6.414981e-004 -6.262157e-004 -2.929319e-005 1.025560e-003 -6.844631e-005 7.742129e-004 1.861446e-004 7.130380e-005 -1.083939e-004 1.776269e-004
<VARIANCE> 39
1.153529e+002 4.721613e+001 5.634021e+001 5.808212e+001 8.033640e+001 7.021080e+001 6.295847e+001 5.240024e+001 5.233024e+001 5.633980e+001 4.597054e+001 3.999132e+001 3.359735e+001 2.383270e+000 2.433319e+000 2.442625e+000 2.571082e+000 3.808628e+000 3.402900e+000 3.853476e+000 3.579180e+000 3.414403e+000 3.381054e+000 3.123485e+000 2.900685e+000 2.464528e+000 3.033425e-001 3.686736e-001 3.597603e-001 4.018120e-001 5.562087e-001 5.465507e-001 6.643626e-001 6.294959e-001 6.168208e-001 5.901449e-001 5.582229e-001 5.186911e-001 4.535647e-001
<GCONST> 1.292377e+002
<STATE> 13
<MEAN> 39
8.721242e-010 -2.898837e-008 8.343755e-009 2.447154e-009 -2.332607e-008 2.741415e-008 3.433176e-009 -1.404510e-008 -1.701944e-009 1.332918e-008 -5.987718e-009 -1.854891e-009 5.345015e-010 6.283470e-004 1.515644e-002 1.980711e-002 1.433912e-002 1.171466e-002 1.099615e-002 1.035604e-003 9.051810e-004 -2.162945e-003 -5.140798e-003 3.192199e-004 2.492317e-003 -2.988119e-003 -2.487397e-004 -3.363372e-005 -8.738435e-005 -6.414981e-004 -6.262157e-004 -2.929319e-005 1.025560e-003 -6.844631e-005 7.742129e-004 1.861446e-004 7.130380e-005 -1.083939e-004 1.776269e-004
<VARIANCE> 39
1.153529e+002 4.721613e+001 5.634021e+001 5.808212e+001 8.033640e+001 7.021080e+001 6.295847e+001 5.240024e+001 5.233024e+001 5.633980e+001 4.597054e+001 3.999132e+001 3.359735e+001 2.383270e+000 2.433319e+000 2.442625e+000 2.571082e+000 3.808628e+000 3.402900e+000 3.853476e+000 3.579180e+000 3.414403e+000 3.381054e+000 3.123485e+000 2.900685e+000 2.464528e+000 3.033425e-001 3.686736e-001 3.597603e-001 4.018120e-001 5.562087e-001 5.465507e-001 6.643626e-001 6.294959e-001 6.168208e-001 5.901449e-001 5.582229e-001 5.186911e-001 4.535647e-001
<GCONST> 1.292377e+002
<STATE> 14
<MEAN> 39
8.721242e-010 -2.898837e-008 8.343755e-009 2.447154e-009 -2.332607e-008 2.741415e-008 3.433176e-009 -1.404510e-008 -1.701944e-009 1.332918e-008 -5.987718e-009 -1.854891e-009 5.345015e-010 6.283470e-004 1.515644e-002 1.980711e-002 1.433912e-002 1.171466e-002 1.099615e-002 1.035604e-003 9.051810e-004 -2.162945e-003 -5.140798e-003 3.192199e-004 2.492317e-003 -2.988119e-003 -2.487397e-004 -3.363372e-005 -8.738435e-005 -6.414981e-004 -6.262157e-004 -2.929319e-005 1.025560e-003 -6.844631e-005 7.742129e-004 1.861446e-004 7.130380e-005 -1.083939e-004 1.776269e-004
<VARIANCE> 39
1.153529e+002 4.721613e+001 5.634021e+001 5.808212e+001 8.033640e+001 7.021080e+001 6.295847e+001 5.240024e+001 5.233024e+001 5.633980e+001 4.597054e+001 3.999132e+001 3.359735e+001 2.383270e+000 2.433319e+000 2.442625e+000 2.571082e+000 3.808628e+000 3.402900e+000 3.853476e+000 3.579180e+000 3.414403e+000 3.381054e+000 3.123485e+000 2.900685e+000 2.464528e+000 3.033425e-001 3.686736e-001 3.597603e-001 4.018120e-001 5.562087e-001 5.465507e-001 6.643626e-001 6.294959e-001 6.168208e-001 5.901449e-001 5.582229e-001 5.186911e-001 4.535647e-001
<GCONST> 1.292377e+002
<STATE> 15
<MEAN> 39
8.721242e-010 -2.898837e-008 8.343755e-009 2.447154e-009 -2.332607e-008 2.741415e-008 3.433176e-009 -1.404510e-008 -1.701944e-009 1.332918e-008 -5.987718e-009 -1.854891e-009 5.345015e-010 6.283470e-004 1.515644e-002 1.980711e-002 1.433912e-002 1.171466e-002 1.099615e-002 1.035604e-003 9.051810e-004 -2.162945e-003 -5.140798e-003 3.192199e-004 2.492317e-003 -2.988119e-003 -2.487397e-004 -3.363372e-005 -8.738435e-005 -6.414981e-004 -6.262157e-004 -2.929319e-005 1.025560e-003 -6.844631e-005 7.742129e-004 1.861446e-004 7.130380e-005 -1.083939e-004 1.776269e-004
<VARIANCE> 39
1.153529e+002 4.721613e+001 5.634021e+001 5.808212e+001 8.033640e+001 7.021080e+001 6.295847e+001 5.240024e+001 5.233024e+001 5.633980e+001 4.597054e+001 3.999132e+001 3.359735e+001 2.383270e+000 2.433319e+000 2.442625e+000 2.571082e+000 3.808628e+000 3.402900e+000 3.853476e+000 3.579180e+000 3.414403e+000 3.381054e+000 3.123485e+000 2.900685e+000 2.464528e+000 3.033425e-001 3.686736e-001 3.597603e-001 4.018120e-001 5.562087e-001 5.465507e-001 6.643626e-001 6.294959e-001 6.168208e-001 5.901449e-001 5.582229e-001 5.186911e-001 4.535647e-001
<GCONST> 1.292377e+002
<STATE> 16
<MEAN> 39
8.721242e-010 -2.898837e-008 8.343755e-009 2.447154e-009 -2.332607e-008 2.741415e-008 3.433176e-009 -1.404510e-008 -1.701944e-009 1.332918e-008 -5.987718e-009 -1.854891e-009 5.345015e-010 6.283470e-004 1.515644e-002 1.980711e-002 1.433912e-002 1.171466e-002 1.099615e-002 1.035604e-003 9.051810e-004 -2.162945e-003 -5.140798e-003 3.192199e-004 2.492317e-003 -2.988119e-003 -2.487397e-004 -3.363372e-005 -8.738435e-005 -6.414981e-004 -6.262157e-004 -2.929319e-005 1.025560e-003 -6.844631e-005 7.742129e-004 1.861446e-004 7.130380e-005 -1.083939e-004 1.776269e-004
<VARIANCE> 39
1.153529e+002 4.721613e+001 5.634021e+001 5.808212e+001 8.033640e+001 7.021080e+001 6.295847e+001 5.240024e+001 5.233024e+001 5.633980e+001 4.597054e+001 3.999132e+001 3.359735e+001 2.383270e+000 2.433319e+000 2.442625e+000 2.571082e+000 3.808628e+000 3.402900e+000 3.853476e+000 3.579180e+000 3.414403e+000 3.381054e+000 3.123485e+000 2.900685e+000 2.464528e+000 3.033425e-001 3.686736e-001 3.597603e-001 4.018120e-001 5.562087e-001 5.465507e-001 6.643626e-001 6.294959e-001 6.168208e-001 5.901449e-001 5.582229e-001 5.186911e-001 4.535647e-001
<GCONST> 1.292377e+002
<STATE> 17
<MEAN> 39
8.721242e-010 -2.898837e-008 8.343755e-009 2.447154e-009 -2.332607e-008 2.741415e-008 3.433176e-009 -1.404510e-008 -1.701944e-009 1.332918e-008 -5.987718e-009 -1.854891e-009 5.345015e-010 6.283470e-004 1.515644e-002 1.980711e-002 1.433912e-002 1.171466e-002 1.099615e-002 1.035604e-003 9.051810e-004 -2.162945e-003 -5.140798e-003 3.192199e-004 2.492317e-003 -2.988119e-003 -2.487397e-004 -3.363372e-005 -8.738435e-005 -6.414981e-004 -6.262157e-004 -2.929319e-005 1.025560e-003 -6.844631e-005 7.742129e-004 1.861446e-004 7.130380e-005 -1.083939e-004 1.776269e-004
<VARIANCE> 39
1.153529e+002 4.721613e+001 5.634021e+001 5.808212e+001 8.033640e+001 7.021080e+001 6.295847e+001 5.240024e+001 5.233024e+001 5.633980e+001 4.597054e+001 3.999132e+001 3.359735e+001 2.383270e+000 2.433319e+000 2.442625e+000 2.571082e+000 3.808628e+000 3.402900e+000 3.853476e+000 3.579180e+000 3.414403e+000 3.381054e+000 3.123485e+000 2.900685e+000 2.464528e+000 3.033425e-001 3.686736e-001 3.597603e-001 4.018120e-001 5.562087e-001 5.465507e-001 6.643626e-001 6.294959e-001 6.168208e-001 5.901449e-001 5.582229e-001 5.186911e-001 4.535647e-001
<GCONST> 1.292377e+002
<TRANSP> 18
0.000000e+000 1.000000e+000 0.000000e+000 0.000000e+000 0.000000e+000 0.000000e+000 0.000000e+000 0.000000e+000 0.000000e+000 0.000000e+000 0.000000e+000 0.000000e+000 0.000000e+000 0.000000e+000 0.000000e+000 0.000000e+000 0.000000e+000 0.000000e+000
0.000000e+000 6.000000e-001 4.000000e-001 0.000000e+000 0.000000e+000 0.000000e+000 0.000000e+000 0.000000e+000 0.000000e+000 0.000000e+000 0.000000e+000 0.000000e+000 0.000000e+000 0.000000e+000 0.000000e+000 0.000000e+000 0.000000e+000 0.000000e+000
0.000000e+000 0.000000e+000 6.000000e-001 4.000000e-001 0.000000e+000 0.000000e+000 0.000000e+000 0.000000e+000 0.000000e+000 0.000000e+000 0.000000e+000 0.000000e+000 0.000000e+000 0.000000e+000 0.000000e+000 0.000000e+000 0.000000e+000 0.000000e+000
0.000000e+000 0.000000e+000 0.000000e+000 6.000000e-001 4.000000e-001 0.000000e+000 0.000000e+000 0.000000e+000 0.000000e+000 0.000000e+000 0.000000e+000 0.000000e+000 0.000000e+000 0.000000e+000 0.000000e+000 0.000000e+000 0.000000e+000 0.000000e+000
0.000000e+000 0.000000e+000 0.000000e+000 0.000000e+000 6.000000e-001 4.000000e-001 0.000000e+000 0.000000e+000 0.000000e+000 0.000000e+000 0.000000e+000 0.000000e+000 0.000000e+000 0.000000e+000 0.000000e+000 0.000000e+000 0.000000e+000 0.000000e+000
0.000000e+000 0.000000e+000 0.000000e+000 0.000000e+000 0.000000e+000 6.000000e-001 4.000000e-001 0.000000e+000 0.000000e+000 0.000000e+000 0.000000e+000 0.000000e+000 0.000000e+000 0.000000e+000 0.000000e+000 0.000000e+000 0.000000e+000 0.000000e+000
0.000000e+000 0.000000e+000 0.000000e+000 0.000000e+000 0.000000e+000 0.000000e+000 6.000000e-001 4.000000e-001 0.000000e+000 0.000000e+000 0.000000e+000 0.000000e+000 0.000000e+000 0.000000e+000 0.000000e+000 0.000000e+000 0.000000e+000 0.000000e+000
0.000000e+000 0.000000e+000 0.000000e+000 0.000000e+000 0.000000e+000 0.000000e+000 0.000000e+000 6.000000e-001 4.000000e-001 0.000000e+000 0.000000e+000 0.000000e+000 0.000000e+000 0.000000e+000 0.000000e+000 0.000000e+000 0.000000e+000 0.000000e+000
0.000000e+000 0.000000e+000 0.000000e+000 0.000000e+000 0.000000e+000 0.000000e+000 0.000000e+000 0.000000e+000 6.000000e-001 4.000000e-001 0.000000e+000 0.000000e+000 0.000000e+000 0.000000e+000 0.000000e+000 0.000000e+000 0.000000e+000 0.000000e+000
0.000000e+000 0.000000e+000 0.000000e+000 0.000000e+000 0.000000e+000 0.000000e+000 0.000000e+000 0.000000e+000 0.000000e+000 6.000000e-001 4.000000e-001 0.000000e+000 0.000000e+000 0.000000e+000 0.000000e+000 0.000000e+000 0.000000e+000 0.000000e+000
0.000000e+000 0.000000e+000 0.000000e+000 0.000000e+000 0.000000e+000 0.000000e+000 0.000000e+000 0.000000e+000 0.000000e+000 0.000000e+000 6.000000e-001 4.000000e-001 0.000000e+000 0.000000e+000 0.000000e+000 0.000000e+000 0.000000e+000 0.000000e+000
0.000000e+000 0.000000e+000 0.000000e+000 0.000000e+000 0.000000e+000 0.000000e+000 0.000000e+000 0.000000e+000 0.000000e+000 0.000000e+000 0.000000e+000 6.000000e-001 4.000000e-001 0.000000e+000 0.000000e+000 0.000000e+000 0.000000e+000 0.000000e+000
0.000000e+000 0.000000e+000 0.000000e+000 0.000000e+000 0.000000e+000 0.000000e+000 0.000000e+000 0.000000e+000 0.000000e+000 0.000000e+000 0.000000e+000 0.000000e+000 6.000000e-001 4.000000e-001 0.000000e+000 0.000000e+000 0.000000e+000 0.000000e+000
0.000000e+000 0.000000e+000 0.000000e+000 0.000000e+000 0.000000e+000 0.000000e+000 0.000000e+000 0.000000e+000 0.000000e+000 0.000000e+000 0.000000e+000 0.000000e+000 0.000000e+000 6.000000e-001 4.000000e-001 0.000000e+000 0.000000e+000 0.000000e+000
0.000000e+000 0.000000e+000 0.000000e+000 0.000000e+000 0.000000e+000 0.000000e+000 0.000000e+000 0.000000e+000 0.000000e+000 0.000000e+000 0.000000e+000 0.000000e+000 0.000000e+000 0.000000e+000 6.000000e-001 4.000000e-001 0.000000e+000 0.000000e+000
0.000000e+000 0.000000e+000 0.000000e+000 0.000000e+000 0.000000e+000 0.000000e+000 0.000000e+000 0.000000e+000 0.000000e+000 0.000000e+000 0.000000e+000 0.000000e+000 0.000000e+000 0.000000e+000 0.000000e+000 6.000000e-001 4.000000e-001 0.000000e+000
0.000000e+000 0.000000e+000 0.000000e+000 0.000000e+000 0.000000e+000 0.000000e+000 0.000000e+000 0.000000e+000 0.000000e+000 0.000000e+000 0.000000e+000 0.000000e+000 0.000000e+000 0.000000e+000 0.000000e+000 0.000000e+000 6.000000e-001 4.000000e-001
0.000000e+000 0.000000e+000 0.000000e+000 0.000000e+000 0.000000e+000 0.000000e+000 0.000000e+000 0.000000e+000 0.000000e+000 0.000000e+000 0.000000e+000 0.000000e+000 0.000000e+000 0.000000e+000 0.000000e+000 0.000000e+000 0.000000e+000 0.000000e+000
<ENDHMM>
